svm_type c_svc
kernel_type polynomial
degree 2
gamma 0.00636943
coef0 0
nr_class 3
total_sv 812
rho 0.999998 -0.999989 -0.999998
label 1 2 3
nr_sv 372 377 63
SV
1 0 1:0 2:0 3:0 4:0 5:0 6:0 7:0 8:0 9:0 10:0 11:0 12:0 13:0 14:0 15:0 16:0 17:0 18:0 19:0 20:0 21:0 22:0 23:0 24:0 25:0 26:0 27:0 28:0 29:0 30:0 31:0 32:0 33:0 34:0 35:0 36:0 37:0 38:0 39:0 40:0 41:0 42:0 43:0 44:0 45:0 46:0 47:0 48:0 49:0 50:0 51:0 52:0 53:0 54:0 55:0 56:0 57:0 58:0 59:0 60:0 61:0 62:0 63:0 64:0 65:0 66:0 67:0 68:0 69:0 70:0 71:0 72:0 73:0 74:0 75:0 76:0 77:0 78:0 79:0 80:0 81:0 82:0 83:0 84:0 85:0 86:0 87:0 88:0 89:0 90:0 91:0 92:0 93:0 94:0 95:0 96:0 97:0 98:0 99:0 100:0 101:0 102:0 103:0 104:0 105:0 106:0 107:0 108:0 109:0 110:0 111:0 112:0 113:0 114:0 115:0 116:0 117:0 118:0 119:0 120:0 121:0 122:0 123:0 124:0 125:0 126:0 127:0 128:0 129:1 130:0 131:0 132:0 133:0 134:0 135:0 136:0 137:0 138:0 139:0 140:0 141:0 142:0 143:0 144:0 145:0 146:0 147:0 148:0 149:0 150:0 151:0 152:0 153:0 154:0 155:0 156:0 157:0 
1 0 1:0.022570373 2:0.016736721 3:0.0030824099 4:0.0036683225 5:2.5474462e-05 6:0.0015794166 7:0.00045854031 8:0.00025474462 9:0.011769201 10:0.065392944 11:0.0027512419 12:2.5474462e-05 13:0 14:0.090052223 15:0.011055916 16:0 17:0.0014520443 18:0 19:7.6423386e-05 20:0 21:0 22:0 23:0 24:0 25:0 26:0 27:0.051178194 28:0.01587059 29:0.021729716 30:0.012278691 31:0 32:0.0050948924 33:0 34:0 35:0.00030569354 36:0 37:2.5474462e-05 38:0 39:0 40:0 41:0 42:0 43:0 44:0 45:0 46:0 47:0 48:0 49:0 50:0 51:0 52:0 53:0 54:0 55:0 56:0.00017832123 57:0.00020379569 58:0 59:0.014545918 60:0.003974016 61:0.00073875939 62:0 63:0.015386575 64:0 65:0.00035664247 66:0 67:7.6423386e-05 68:0 69:0 70:0 71:0 72:0 73:0.0018086868 74:0 75:0.012890078 76:0.024964973 77:0.025652783 78:0.00081518278 79:0.0054260604 80:2.5474462e-05 81:0 82:2.5474462e-05 83:0 84:0.00010189785 85:0 86:0.0020634314 87:0.00012737231 88:0 89:7.6423386e-05 90:0 91:0.0068016813 92:0.0015284677 93:2.5474462e-05 94:0 95:0.0081518278 96:0.0046108776 97:0.0052732136 98:0.049828047 99:0.0031333588 100:0 101:0 102:0 103:0 104:0 105:0 106:0 107:0 108:0 109:0 110:0 111:0 112:0 113:0 114:0.025448987 115:0.00022927016 116:0.020226723 117:0.016685773 118:0.0029295631 119:0 120:0.0013501465 121:0 122:0.00081518278 123:0 124:0 125:0 126:0.019258693 127:0.00040759139 128:0 129:0.091020252 130:0.11297924 131:0.060247102 132:0.013603363 133:0.015997962 134:0.00076423386 135:0.00010189785 136:0.00078970832 137:2.5474462e-05 138:0.01398548 139:0.0069290536 140:0.021118329 141:0.0066233601 142:0 143:0.011514457 144:5.0948924e-05 145:0.0099095657 146:0.00091708063 147:0 148:0.010291683 149:0.0090179595 150:0 151:0.0005349637 152:0 153:0 154:0 155:0 156:0 157:0 
1 0 1:0.012367491 2:0.011189635 3:0.0023557126 4:0.0029446408 5:0 6:0.0035335689 7:0 8:0.0017667845 9:0.0082449941 10:0.10954064 11:0.011189635 12:0.00058892815 13:0 14:0.037691402 15:0.0082449941 16:0 17:0.0035335689 18:0 19:0.0011778563 20:0 21:0 22:0 23:0 24:0 25:0 26:0 27:0.020612485 28:0.014134276 29:0.016489988 30:0.012956419 31:0 32:0.0041224971 33:0 34:0 35:0.00058892815 36:0 37:0.00058892815 38:0 39:0 40:0 41:0 42:0 43:0 44:0 45:0 46:0.0011778563 47:0.00058892815 48:0 49:0.00058892815 50:0 51:0 52:0 53:0 54:0 55:0 56:0.00058892815 57:0.00058892815 58:0 59:0.020612485 60:0.007656066 61:0.0011778563 62:0 63:0.015312132 64:0 65:0.0017667845 66:0 67:0 68:0 69:0 70:0 71:0 72:0 73:0.0053003534 74:0 75:0.0035335689 76:0.03180212 77:0.022968198 78:0.016489988 79:0.0058892815 80:0.00058892815 81:0 82:0 83:0 84:0.00058892815 85:0 86:0.0017667845 87:0.014134276 88:0 89:0.0011778563 90:0 91:0.0029446408 92:0.0047114252 93:0 94:0 95:0.0064782097 96:0.011189635 97:0.0070671378 98:0.04770318 99:0.0047114252 100:0.00058892815 101:0 102:0 103:0 104:0 105:0 106:0 107:0 108:0 109:0 110:0 111:0 112:0 113:0 114:0.02532391 115:0.0011778563 116:0.011778563 117:0.0064782097 118:0.00058892815 119:0 120:0 121:0 122:0 123:0 124:0 125:0 126:0.018256773 127:0.0011778563 128:0.00058892815 129:0.086572438 130:0.106596 131:0.051236749 132:0.029446408 133:0.02237927 134:0.0017667845 135:0 136:0.00058892815 137:0.0029446408 138:0.011778563 139:0.0041224971 140:0.047114252 141:0.0035335689 142:0 143:0.0088339223 144:0.00058892815 145:0.015312132 146:0 147:0 148:0.0082449941 149:0.0088339223 150:0 151:0.0011778563 152:0 153:0 154:0 155:0 156:0 157:0 
1 0 1:0.016388276 2:0.01134573 3:0.0025212732 4:0.0037819099 5:0 6:0.0078789789 7:0.0066183423 8:0.00094547747 9:0.015757958 10:0.091396155 11:0.005988024 12:0 13:0 14:0.039394894 15:0.01859439 16:0 17:0.0037819099 18:0 19:0.0015757958 20:0 21:0 22:0 23:0 24:0 25:0 26:0 27:0.021745982 28:0.008194138 29:0.01103057 30:0.0078789789 31:0 32:0.0053577056 33:0 34:0 35:0.00031515916 36:0 37:0 38:0 39:0 40:0 41:0 42:0 43:0 44:0 45:0.00063031831 46:0.00063031831 47:0.00031515916 48:0 49:0.00031515916 50:0 51:0 52:0 53:0 54:0 55:0 56:0.00063031831 57:0.00031515916 58:0 59:0.030255279 60:0.012921525 61:0.0012606366 62:0 63:0.01481248 64:0 65:0.0022061141 66:0 67:0.00063031831 68:0 69:0 70:0 71:0 72:0 73:0.0012606366 74:0 75:0.020485345 76:0.016703435 77:0.019224708 78:0.0053577056 79:0.0025212732 80:0 81:0.00063031831 82:0 83:0 84:0 85:0 86:0.0028364324 87:0.005988024 88:0 89:0 90:0 91:0.0034667507 92:0.0028364324 93:0.00031515916 94:0 95:0.0053577056 96:0.0022061141 97:0.0094547747 98:0.04097069 99:0.0025212732 100:0 101:0 102:0 103:0 104:0 105:0 106:0 107:0 108:0 109:0 110:0 111:0 112:0 113:0 114:0.0223763 115:0.00063031831 116:0.0075638197 117:0.0066183423 118:0.0015757958 119:0 120:0.00031515916 121:0 122:0.00031515916 123:0 124:0 125:0 126:0.020170186 127:0.00063031831 128:0 129:0.10936023 130:0.13362748 131:0.042546486 132:0.032461393 133:0.018279231 134:0.0031515916 135:0.00063031831 136:0 137:0.0028364324 138:0.0088244564 139:0.0091396155 140:0.028679483 141:0.0072486606 142:0 143:0.0072486606 144:0.00094547747 145:0.012291207 146:0.00094547747 147:0 148:0.017018594 149:0.012921525 150:0 151:0.004097069 152:0 153:0 154:0 155:0 156:0 157:0 
1 0 1:0.017502524 2:0.017502524 3:0.0053853921 4:0.0023561091 5:0 6:0.0050488051 7:0.001346348 8:0.002019522 9:0.0090878492 10:0.099293167 11:0.0047122181 12:0 13:0.002019522 14:0.031975766 15:0.0057219791 16:0 17:0.017839111 18:0 19:0.0074049142 20:0 21:0 22:0 23:0 24:0 25:0 26:0 27:0.023224504 28:0.014473241 29:0.02019522 30:0.018848872 31:0 32:0.0023561091 33:0 34:0 35:0.001346348 36:0 37:0 38:0 39:0 40:0 41:0 42:0 43:0 44:0 45:0.00033658701 46:0.00067317402 47:0.00033658701 48:0 49:0.00033658701 50:0 51:0 52:0 53:0 54:0 55:0 56:0.00033658701 57:0 58:0 59:0.024907439 60:0.0084146752 61:0.00067317402 62:0 63:0.0063951531 64:0 65:0.0057219791 66:0 67:0.0074049142 68:0 69:0 70:0 71:0 72:0 73:0.00033658701 74:0 75:0.010770784 76:0.028273309 77:0.018175698 78:0.0060585661 79:0.0043756311 80:0 81:0.00033658701 82:0 83:0 84:0.00033658701 85:0 86:0.0023561091 87:0.001009761 88:0 89:0 90:0 91:0.002019522 92:0.0057219791 93:0 94:0 95:0.001682935 96:0.0023561091 97:0.0047122181 98:0.043419724 99:0.0023561091 100:0 101:0 102:0 103:0 104:0 105:0 106:0 107:0 108:0 109:0 110:0 111:0 112:0 113:0 114:0.017165937 115:0.001346348 116:0.015146415 117:0.0067317402 118:0.001009761 119:0 120:0.001009761 121:0 122:0.001346348 123:0 124:0 125:0 126:0.024234265 127:0.001346348 128:0 129:0.097273645 130:0.13160552 131:0.038034332 132:0.037024571 133:0.017839111 134:0.0023561091 135:0 136:0 137:0.0026926961 138:0.016492763 139:0.0063951531 140:0.030292831 141:0.0030292831 142:0 143:0.011780545 144:0.00033658701 145:0.012790306 146:0.00067317402 147:0 148:0.0067317402 149:0.0053853921 150:0 151:0.010434197 152:0 153:0 154:0 155:0 156:0 157:0 
1 0 1:0.023955774 2:0.015356265 3:0.0082923833 4:0.0033783784 5:0 6:0.0024570025 7:0.0021498771 8:0.00061425061 9:0.0089066339 10:0.097358722 11:0.0036855037 12:0 13:0 14:0.057125307 15:0.018427518 16:0 17:0.0030712531 18:0 19:0.0027641278 20:0 21:0 22:0 23:0 24:0 25:0 26:0 27:0.016891892 28:0.0089066339 29:0.012899263 30:0.010749386 31:0 32:0.0055282555 33:0.00030712531 34:0 35:0.00061425061 36:0 37:0.00030712531 38:0 39:0 40:0 41:0 42:0 43:0 44:0 45:0 46:0.0015356265 47:0.0012285012 48:0 49:0 50:0 51:0 52:0 53:0 54:0 55:0 56:0 57:0.00030712531 58:0 59:0.031019656 60:0.013513514 61:0.00030712531 62:0 63:0.013206388 64:0 65:0.00030712531 66:0 67:0.0012285012 68:0 69:0 70:0 71:0 72:0 73:0.00030712531 74:0.00030712531 75:0.011363636 76:0.026105651 77:0.021191646 78:0.010749386 79:0.0042997543 80:0 81:0 82:0 83:0 84:0 85:0.00030712531 86:0.003992629 87:0.0052211302 88:0 89:0.00030712531 90:0 91:0.0027641278 92:0.0042997543 93:0 94:0 95:0.003992629 96:0.0021498771 97:0.0073710074 98:0.057125307 99:0.0030712531 100:0 101:0 102:0 103:0 104:0 105:0 106:0 107:0 108:0 109:0 110:0 111:0 112:0 113:0 114:0.019348894 115:0.0018427518 116:0.012285012 117:0.0064496314 118:0.00061425061 119:0 120:0 121:0 122:0.00030712531 123:0 124:0 125:0 126:0.014742015 127:0.00030712531 128:0 129:0.092751843 130:0.10841523 131:0.054668305 132:0.03531941 133:0.019963145 134:0.0036855037 135:0.0012285012 136:0 137:0.0033783784 138:0.011056511 139:0.0055282555 140:0.026105651 141:0.0092137592 142:0 143:0.0064496314 144:0.00030712531 145:0.018120393 146:0.00030712531 147:0 148:0.0055282555 149:0.0098280098 150:0 151:0.00092137592 152:0 153:0 154:0 155:0 156:0 157:0 
1 0 1:0.018284107 2:0.0070323488 3:0.0042194093 4:0.0014064698 5:0 6:0.0014064698 7:0.005625879 8:0.0014064698 9:0.014064698 10:0.088607595 11:0.011251758 12:0 13:0 14:0.073136428 15:0.012658228 16:0 17:0.0014064698 18:0 19:0 20:0 21:0 22:0 23:0 24:0 25:0 26:0 27:0.023909986 28:0.012658228 29:0.012658228 30:0.0084388186 31:0 32:0.0014064698 33:0 34:0 35:0 36:0 37:0 38:0 39:0 40:0 41:0 42:0 43:0 44:0 45:0 46:0.0028129395 47:0 48:0 49:0 50:0 51:0 52:0 53:0 54:0 55:0 56:0 57:0 58:0 59:0.021097046 60:0.012658228 61:0 62:0 63:0.011251758 64:0 65:0 66:0 67:0 68:0 69:0 70:0 71:0 72:0 73:0 74:0 75:0.016877637 76:0.018284107 77:0.016877637 78:0.005625879 79:0.0028129395 80:0 81:0 82:0 83:0 84:0 85:0 86:0.005625879 87:0.0028129395 88:0 89:0 90:0 91:0.0070323488 92:0.0028129395 93:0 94:0 95:0.0014064698 96:0 97:0.0028129395 98:0.078762307 99:0.0070323488 100:0 101:0 102:0 103:0 104:0 105:0 106:0 107:0 108:0 109:0 110:0 111:0 112:0 113:0 114:0.014064698 115:0.0014064698 116:0.018284107 117:0 118:0.0042194093 119:0 120:0 121:0 122:0 123:0 124:0 125:0 126:0.012658228 127:0 128:0 129:0.12939522 130:0.12376934 131:0.045007032 132:0.018284107 133:0.018284107 134:0.0014064698 135:0 136:0.0028129395 137:0 138:0.016877637 139:0.0014064698 140:0.028129395 141:0.0070323488 142:0 143:0.0098452883 144:0 145:0.014064698 146:0 147:0 148:0.012658228 149:0.0042194093 150:0 151:0 152:0 153:0 154:0 155:0 156:0 157:0 
1 0 1:0.0083945435 2:0.016789087 3:0.0041972718 4:0.0031479538 5:0 6:0.0020986359 7:0.0020986359 8:0 9:0.010493179 10:0.075550892 11:0.0062959077 12:0 13:0 14:0.070304302 15:0.024134313 16:0 17:0.0041972718 18:0 19:0.0083945435 20:0 21:0 22:0 23:0 24:0 25:0 26:0 27:0.050367261 28:0.0094438615 29:0.017838405 30:0.0073452256 31:0 32:0.0031479538 33:0 34:0 35:0 36:0 37:0 38:0 39:0 40:0 41:0 42:0 43:0 44:0 45:0 46:0 47:0 48:0 49:0.0010493179 50:0 51:0 52:0 53:0 54:0 55:0 56:0 57:0 58:0 59:0.019937041 60:0.0094438615 61:0 62:0 63:0.012591815 64:0 65:0.0010493179 66:0 67:0.0010493179 68:0 69:0 70:0 71:0 72:0 73:0 74:0 75:0.018887723 76:0.018887723 77:0.012591815 78:0.0062959077 79:0.0010493179 80:0 81:0 82:0 83:0 84:0 85:0 86:0 87:0.0010493179 88:0 89:0 90:0 91:0.0020986359 92:0.0031479538 93:0 94:0 95:0.0020986359 96:0.0020986359 97:0.0062959077 98:0.044071354 99:0.0031479538 100:0 101:0 102:0 103:0 104:0 105:0 106:0 107:0 108:0 109:0 110:0 111:0 112:0 113:0 114:0.036726128 115:0 116:0.022035677 117:0.0031479538 118:0.0020986359 119:0 120:0 121:0 122:0 123:0 124:0 125:0 126:0.015739769 127:0 128:0 129:0.10912907 130:0.11752361 131:0.050367261 132:0.043022036 133:0.014690451 134:0.0031479538 135:0 136:0 137:0.0031479538 138:0.0094438615 139:0.0041972718 140:0.026232949 141:0.0094438615 142:0 143:0.0062959077 144:0 145:0.0073452256 146:0 147:0 148:0.014690451 149:0.0062959077 150:0 151:0.0041972718 152:0 153:0 154:0 155:0 156:0 157:0 
1 0 1:0.017147311 2:0.014029618 3:0.0054559626 4:0.0015588465 5:0 6:0.0031176929 7:0.0015588465 8:0.0015588465 9:0.012470772 10:0.095089634 11:0.010911925 12:0 13:0 14:0.030397506 15:0.0054559626 16:0 17:0.029618083 18:0 19:0.0077942323 20:0 21:0 22:0 23:0 24:0 25:0 26:0 27:0.027279813 28:0.0093530787 29:0.020265004 30:0.014809041 31:0 32:0 33:0 34:0 35:0.00077942323 36:0 37:0.0015588465 38:0 39:0 40:0 41:0 42:0 43:0 44:0 45:0 46:0 47:0.0015588465 48:0 49:0 50:0 51:0 52:0 53:0 54:0 55:0 56:0 57:0.00077942323 58:0 59:0.028838659 60:0.012470772 61:0 62:0 63:0.017147311 64:0 65:0.0031176929 66:0 67:0.0054559626 68:0 69:0 70:0 71:0 72:0 73:0 74:0 75:0.017147311 76:0.022603274 77:0.018706157 78:0.0015588465 79:0.0015588465 80:0 81:0 82:0 83:0 84:0 85:0 86:0 87:0 88:0 89:0 90:0 91:0.0015588465 92:0.00077942323 93:0 94:0 95:0.0015588465 96:0.0038971161 97:0.0054559626 98:0.041309431 99:0.0015588465 100:0 101:0 102:0 103:0 104:0 105:0 106:0 107:0 108:0 109:0 110:0 111:0 112:0 113:0 114:0.014029618 115:0.0038971161 116:0.007014809 117:0.0054559626 118:0.0031176929 119:0 120:0.0015588465 121:0 122:0 123:0 124:0 125:0 126:0.010911925 127:0 128:0 129:0.11223694 130:0.13717849 131:0.043647701 132:0.032735776 133:0.023382697 134:0.0054559626 135:0 136:0 137:0.0015588465 138:0.015588465 139:0.011691348 140:0.033515199 141:0.0062353858 142:0 143:0.0085736555 144:0 145:0.010132502 146:0 147:0 148:0.0031176929 149:0.0077942323 150:0 151:0.0038971161 152:0 153:0 154:0 155:0 156:0 157:0 
1 0 1:0.023509656 2:0.021830395 3:0.0025188917 4:0.0050377834 5:0 6:0.0033585223 7:0 8:0.0016792611 9:0.010075567 10:0.093198992 11:0.0025188917 12:0 13:0 14:0.031066331 15:0.011754828 16:0 17:0.020151134 18:0 19:0.01427372 20:0 21:0 22:0 23:0 24:0 25:0 26:0 27:0.01511335 28:0.0075566751 29:0.019311503 30:0.019311503 31:0 32:0.0041981528 33:0 34:0 35:0.0025188917 36:0 37:0.00083963056 38:0 39:0 40:0 41:0 42:0 43:0 44:0 45:0 46:0.00083963056 47:0 48:0 49:0 50:0 51:0 52:0 53:0 54:0 55:0 56:0.00083963056 57:0 58:0 59:0.024349286 60:0.010075567 61:0 62:0 63:0.015952981 64:0 65:0.0033585223 66:0 67:0.0033585223 68:0 69:0 70:0 71:0 72:0 73:0 74:0 75:0.013434089 76:0.021830395 77:0.023509656 78:0.0067170445 79:0.0050377834 80:0 81:0 82:0 83:0 84:0 85:0 86:0.0016792611 87:0.00083963056 88:0 89:0 90:0 91:0.0033585223 92:0.0067170445 93:0 94:0 95:0.0033585223 96:0.0025188917 97:0.0050377834 98:0.049538203 99:0.0058774139 100:0 101:0 102:0 103:0 104:0 105:0 106:0 107:0 108:0 109:0 110:0 111:0 112:0 113:0 114:0.01427372 115:0.0041981528 116:0.011754828 117:0.0067170445 118:0 119:0 120:0 121:0 122:0.0033585223 123:0 124:0 125:0 126:0.017632242 127:0.00083963056 128:0 129:0.10495382 130:0.13602015 131:0.037783375 132:0.02938707 133:0.017632242 134:0.0016792611 135:0.00083963056 136:0 137:0.0016792611 138:0.0075566751 139:0.010075567 140:0.036104114 141:0.0025188917 142:0 143:0.0058774139 144:0 145:0.012594458 146:0 147:0 148:0.0058774139 149:0.0075566751 150:0 151:0.0050377834 152:0 153:0 154:0 155:0 156:0 157:0 
1 0 1:0.016840417 2:0.013231756 3:0.0032076985 4:0.0032076985 5:0 6:0.0068163593 7:0.0056134723 8:0.0028067362 9:0.012028869 10:0.089414595 11:0.0084202085 12:0 13:0 14:0.062951083 15:0.016038492 16:0 17:0.011226945 18:0 19:0.0016038492 20:0 21:0 22:0 23:0 24:0 25:0 26:0 27:0.019246191 28:0.013231756 29:0.018444266 30:0.01042502 31:0 32:0.0040096231 33:0 34:0 35:0.00080192462 36:0 37:0.00080192462 38:0 39:0 40:0 41:0 42:0 43:0 44:0 45:0 46:0.0020048115 47:0 48:0 49:0 50:0 51:0 52:0 53:0 54:0 55:0 56:0.00040096231 57:0 58:0 59:0.016038492 60:0.0084202085 61:0.0020048115 62:0 63:0.019246191 64:0 65:0.0020048115 66:0 67:0.00040096231 68:0 69:0 70:0 71:0 72:0 73:0.0024057739 74:0.00080192462 75:0.010825982 76:0.018845229 77:0.021651965 78:0.0020048115 79:0.00521251 80:0 81:0.00040096231 82:0 83:0 84:0.00080192462 85:0 86:0 87:0.00080192462 88:0 89:0 90:0 91:0.0032076985 92:0.0036086608 93:0 94:0 95:0.0024057739 96:0.0044105854 97:0.0048115477 98:0.047714515 99:0.0032076985 100:0 101:0 102:0 103:0 104:0 105:0 106:0 107:0 108:0 109:0 110:0 111:0 112:0 113:0 114:0.018444266 115:0.00521251 116:0.013231756 117:0.00521251 118:0.0020048115 119:0 120:0.0012028869 121:0 122:0.0016038492 123:0 124:0 125:0 126:0.012429832 127:0 128:0 129:0.11467522 130:0.13071371 131:0.053327987 132:0.02085004 133:0.017642342 134:0.0048115477 135:0.00040096231 136:0 137:0.0040096231 138:0.0096230954 139:0.0048115477 140:0.024057739 141:0.0084202085 142:0 143:0.0080192462 144:0 145:0.017241379 146:0.0012028869 147:0 148:0.00521251 149:0.0056134723 150:0 151:0.0060144346 152:0 153:0 154:0 155:0 156:0 157:0 
1 0 1:0.01750547 2:0.014792123 3:0.0036761488 4:0.0036761488 5:0 6:0.0025382932 7:0.0015754923 8:0.0014004376 9:0.012866521 10:0.095667396 11:0.0089277899 12:0.00043763676 13:0 14:0.063544858 15:0.013829322 16:0 17:0.0021006565 18:0 19:0.00043763676 20:0 21:0 22:0 23:0 24:0 25:0 26:0 27:0.022932166 28:0.012603939 29:0.016980306 30:0.0060393873 31:0 32:0.0055142232 33:0 34:0 35:0.0001750547 36:0 37:0 38:0 39:0 40:0 41:0 42:0 43:0 44:0 45:0.00052516411 46:0.0021881838 47:0.0018380744 48:0 49:0.0019256018 50:0 51:0 52:0 53:0 54:0 55:0 56:0.00061269147 57:0 58:0 59:0.021006565 60:0.0102407 61:0.0027133479 62:0 63:0.012253829 64:0 65:0.00043763676 66:0 67:0.00052516411 68:0 69:0 70:0 71:0 72:0 73:0.0041137856 74:0 75:0.014704595 76:0.022757112 77:0.02214442 78:0.012778993 79:0.0057768053 80:0.0001750547 81:0 82:0.00043763676 83:0 84:0.00035010941 85:0 86:0.0016630197 87:0.0030634573 88:0 89:0.00035010941 90:0 91:0.0038512035 92:0.0028884026 93:0 94:0 95:0.0082275711 96:0.006214442 97:0.0070897155 98:0.054354486 99:0.0027133479 100:0 101:0 102:0 103:0 104:0 105:0 106:0 107:0 108:0 109:0 110:0 111:0 112:0 113:8.7527352e-05 114:0.024682713 115:0.00052516411 116:0.017067834 117:0.0084901532 118:0.0019256018 119:0 120:0.00078774617 121:0 122:0.00043763676 123:0 124:0 125:0 126:0.018468271 127:0.00043763676 128:0 129:0.095842451 130:0.1004814 131:0.04595186 132:0.020218818 133:0.019256018 134:0.0022757112 135:0 136:0.00043763676 137:0.0057768053 138:0.010153173 139:0.0053391685 140:0.031334792 141:0.012166302 142:0 143:0.011028446 144:0.00026258206 145:0.013391685 146:0.00078774617 147:0 148:0.0086652079 149:0.007702407 150:0 151:0.00087527352 152:0 153:0 154:0 155:0 156:0 157:0 
1 0 1:0.02037037 2:0.014814815 3:0.0064814815 4:0.0055555556 5:0 6:0.0018518519 7:0.00092592593 8:0.0027777778 9:0.010185185 10:0.11111111 11:0.0055555556 12:0 13:0 14:0.055555556 15:0.012037037 16:0 17:0.0055555556 18:0 19:0.0027777778 20:0 21:0 22:0 23:0 24:0 25:0 26:0 27:0.031481481 28:0.0092592593 29:0.02037037 30:0.0092592593 31:0 32:0.0018518519 33:0 34:0 35:0.00092592593 36:0 37:0 38:0 39:0 40:0 41:0 42:0 43:0 44:0 45:0 46:0.0027777778 47:0 48:0 49:0 50:0 51:0 52:0 53:0 54:0 55:0 56:0 57:0 58:0 59:0.021296296 60:0.014814815 61:0 62:0 63:0.012037037 64:0 65:0.0018518519 66:0 67:0.0018518519 68:0 69:0 70:0 71:0 72:0 73:0 74:0 75:0.012962963 76:0.015740741 77:0.030555556 78:0.015740741 79:0.0046296296 80:0 81:0 82:0 83:0 84:0 85:0 86:0 87:0.0018518519 88:0 89:0 90:0 91:0.0037037037 92:0.00092592593 93:0 94:0 95:0.0046296296 96:0.0018518519 97:0.0037037037 98:0.061111111 99:0.0027777778 100:0 101:0 102:0 103:0 104:0 105:0 106:0 107:0 108:0 109:0 110:0 111:0 112:0 113:0 114:0.024074074 115:0.00092592593 116:0.0083333333 117:0.0018518519 118:0.00092592593 119:0 120:0 121:0 122:0 123:0 124:0 125:0 126:0.012962963 127:0.00092592593 128:0 129:0.10185185 130:0.094444444 131:0.050925926 132:0.038888889 133:0.015740741 134:0.0083333333 135:0.00092592593 136:0 137:0.0083333333 138:0.011111111 139:0.0046296296 140:0.024074074 141:0.0064814815 142:0 143:0.0046296296 144:0 145:0.016666667 146:0.0046296296 147:0 148:0.0027777778 149:0.0055555556 150:0 151:0.0064814815 152:0 153:0 154:0 155:0 156:0 157:0 
1 0 1:0.017787954 2:0.014617823 3:0.0042268404 4:0.0038746037 5:0 6:0.0014089468 7:0.0022895386 8:0.00052835505 9:0.0093342726 10:0.085593519 11:0.0012328285 12:0.00017611835 13:0 14:0.049665375 15:0.0098626277 16:0 17:0.0012328285 18:0 19:0 20:0 21:0 22:0 23:0 24:0 25:0 26:0 27:0.033990842 28:0.018492427 29:0.017435717 30:0.006516379 31:0 32:0.0066924974 33:0 34:0 35:0.0003522367 36:0 37:0 38:0 39:0 40:0 41:0 42:0 43:0 44:0 45:0 46:0 47:0 48:0 49:0 50:0 51:0 52:0 53:0 54:0 55:0 56:0.00088059176 57:0 58:0 59:0.022014794 60:0.0056357872 61:0.0031701303 62:0 63:0.014089468 64:0 65:0.00088059176 66:0 67:0 68:0 69:0 70:0 71:0 72:0 73:0.0056357872 74:0 75:0.010743219 76:0.033462487 77:0.017787954 78:0.0044029588 79:0.0070447341 80:0 81:0 82:0.0010567101 83:0 84:0.0003522367 85:0 86:0.0026417753 87:0.0033462487 88:0 89:0.0003522367 90:0 91:0.0049313138 92:0.003522367 93:0 94:0 95:0.0061641423 96:0.0047551955 97:0.0066924974 98:0.055653399 99:0.0033462487 100:0 101:0 102:0 103:0 104:0 105:0 106:0 107:0 108:0 109:0 110:0 111:0 112:0 113:0 114:0.024832688 115:0.00017611835 116:0.014441705 117:0.01391335 118:0.0015850652 119:0 120:0.0015850652 121:0 122:0.0015850652 123:0 124:0 125:0 126:0.0191969 127:0.00052835505 128:0 129:0.096336738 130:0.10725608 131:0.047551955 132:0.021662557 133:0.021662557 134:0.00088059176 135:0.00017611835 136:0.0026417753 137:0 138:0.012328285 139:0.0058119056 140:0.041387813 141:0.011976048 142:0 143:0.0075730891 144:0.00070447341 145:0.011976048 146:0.0014089468 147:0 148:0.012328285 149:0.01391335 150:0 151:0.00070447341 152:0 153:0 154:0 155:0 156:0 157:0 
1 1 1:0.037698413 2:0.014384921 3:0.0034722222 4:0.0074404762 5:0 6:0.0024801587 7:0.0014880952 8:0.00099206349 9:0.012400794 10:0.0625 11:0.00049603175 12:0 13:0 14:0.072420635 15:0.0024801587 16:0 17:0 18:0 19:0 20:0 21:0 22:0 23:0 24:0 25:0 26:0 27:0.05109127 28:0.0074404762 29:0.017361111 30:0.0074404762 31:0 32:0.0069444444 33:0 34:0 35:0.00049603175 36:0 37:0 38:0 39:0 40:0 41:0 42:0 43:0 44:0 45:0 46:0 47:0 48:0 49:0 50:0 51:0 52:0 53:0 54:0 55:0 56:0.00049603175 57:0 58:0 59:0.02281746 60:0.0034722222 61:0.0014880952 62:0 63:0.0089285714 64:0 65:0.00049603175 66:0 67:0 68:0 69:0 70:0 71:0 72:0 73:0.012896825 74:0 75:0.012400794 76:0.0094246032 77:0.034722222 78:0.001984127 79:0.003968254 80:0 81:0 82:0 83:0 84:0 85:0 86:0.0029761905 87:0.00049603175 88:0 89:0 90:0 91:0.0049603175 92:0.00049603175 93:0 94:0 95:0.0089285714 96:0.0024801587 97:0.0064484127 98:0.048115079 99:0.0044642857 100:0 101:0 102:0 103:0 104:0 105:0 106:0 107:0 108:0 109:0 110:0 111:0 112:0 113:0 114:0.026785714 115:0 116:0.019345238 117:0.019345238 118:0.0094246032 119:0 120:0.0014880952 121:0 122:0.00099206349 123:0 124:0 125:0 126:0.020833333 127:0 128:0 129:0.078373016 130:0.085813492 131:0.080357143 132:0.015376984 133:0.019345238 134:0.00099206349 135:0 136:0.00049603175 137:0 138:0.012896825 139:0.0054563492 140:0.028769841 141:0.017361111 142:0 143:0.0054563492 144:0 145:0.015376984 146:0.003968254 147:0 148:0.013888889 149:0.015376984 150:0 151:0.00099206349 152:0 153:0 154:0 155:0 156:0 157:0 
1 0 1:0 2:0 3:0 4:0 5:0 6:0 7:0 8:0 9:0 10:0.035714286 11:0 12:0 13:0 14:0.125 15:0 16:0 17:0 18:0 19:0 20:0 21:0 22:0 23:0 24:0 25:0 26:0 27:0.035714286 28:0.053571429 29:0.071428571 30:0 31:0 32:0.017857143 33:0 34:0 35:0 36:0 37:0 38:0 39:0 40:0 41:0 42:0 43:0 44:0 45:0 46:0 47:0 48:0 49:0 50:0 51:0 52:0 53:0 54:0 55:0 56:0 57:0 58:0 59:0.035714286 60:0 61:0 62:0 63:0 64:0 65:0 66:0 67:0 68:0 69:0 70:0 71:0 72:0 73:0 74:0 75:0 76:0 77:0.125 78:0 79:0 80:0 81:0 82:0 83:0 84:0 85:0 86:0 87:0 88:0 89:0 90:0 91:0.035714286 92:0 93:0 94:0 95:0.017857143 96:0 97:0 98:0.053571429 99:0 100:0 101:0 102:0 103:0 104:0 105:0 106:0 107:0 108:0 109:0 110:0 111:0 112:0 113:0 114:0 115:0 116:0.035714286 117:0.017857143 118:0 119:0 120:0 121:0 122:0 123:0 124:0 125:0 126:0.017857143 127:0 128:0 129:0.053571429 130:0.053571429 131:0.16071429 132:0 133:0.017857143 134:0 135:0 136:0 137:0 138:0 139:0 140:0.017857143 141:0 142:0 143:0 144:0 145:0 146:0 147:0 148:0.017857143 149:0 150:0 151:0 152:0 153:0 154:0 155:0 156:0 157:0 
1 1 1:0.02133995 2:0.016129032 3:0.0042183623 4:0.0094292804 5:0 6:0.0027295285 7:0.0022332506 8:0.00024813896 9:0.011662531 10:0.078908189 11:0.0027295285 12:0.00099255583 13:0 14:0.079900744 15:0.017617866 16:0 17:0.00024813896 18:0 19:0.00024813896 20:0 21:0 22:0 23:0 24:0 25:0 26:0 27:0.034491315 28:0.010669975 29:0.021091811 30:0.005955335 31:0 32:0.0084367246 33:0 34:0 35:0.00024813896 36:0 37:0 38:0 39:0 40:0 41:0 42:0 43:0 44:0 45:0 46:0 47:0 48:0 49:0 50:0 51:0 52:0 53:0 54:0 55:0 56:0.00024813896 57:0 58:0 59:0.025310174 60:0.0037220844 61:0.0019851117 62:0 63:0.0094292804 64:0 65:0 66:0 67:0 68:0 69:0 70:0 71:0 72:0 73:0.005707196 74:0 75:0.0086848635 76:0.024069479 77:0.038957816 78:0.0019851117 79:0.0049627792 80:0 81:0 82:0.00024813896 83:0 84:0.0017369727 85:0 86:0.0017369727 87:0.00024813896 88:0 89:0.00074441687 90:0 91:0.0086848635 92:0.0024813896 93:0 94:0 95:0.0049627792 96:0.0032258065 97:0.0081885856 98:0.051612903 99:0.0054590571 100:0 101:0 102:0 103:0 104:0 105:0 106:0 107:0 108:0 109:0 110:0 111:0 112:0 113:0 114:0.036228288 115:0 116:0.017617866 117:0.024813896 118:0.0034739454 119:0 120:0.00099255583 121:0 122:0.0012406948 123:0 124:0 125:0 126:0.027791563 127:0.00049627792 128:0 129:0.058560794 130:0.063027295 131:0.081389578 132:0.014143921 133:0.017369727 134:0.0017369727 135:0 136:0.00049627792 137:0 138:0.010918114 139:0.0037220844 140:0.028039702 141:0.0099255583 142:0 143:0.0064516129 144:0.00049627792 145:0.0099255583 146:0.0012406948 147:0 148:0.014888337 149:0.020347395 150:0 151:0.00074441687 152:0 153:0 154:0 155:0 156:0 157:0 
1 0 1:0.017532209 2:0.014875814 3:0.0021251162 4:0.0026563953 5:0 6:0.0013281976 7:0.00079691858 8:0.00039845929 9:0.013149157 10:0.056846859 11:0.0079691858 12:0 13:0 14:0.099083544 15:0.013680436 16:0 17:0.00053127905 18:0 19:0 20:0 21:0 22:0 23:0 24:0 25:0 26:0 27:0.060167353 28:0.020852703 29:0.026165493 30:0.0053127905 31:0 32:0.0034533139 33:0.00026563953 34:0 35:0 36:0 37:0 38:0 39:0 40:0 41:0 42:0 43:0 44:0 45:0 46:0 47:0 48:0 49:0 50:0 51:0 52:0 53:0 54:0 55:0 56:0.00013281976 57:0.00026563953 58:0 59:0.013680436 60:0.0035861336 61:0.00013281976 62:0 63:0.01115686 64:0 65:0.00013281976 66:0 67:0 68:0 69:0 70:0 71:0 72:0 73:0.00039845929 74:0.00053127905 75:0.0075707265 76:0.025368575 77:0.038119272 78:0.0013281976 79:0.0066409882 80:0 81:0 82:0 83:0 84:0.00013281976 85:0 86:0.00092973835 87:0.00066409882 88:0 89:0.00013281976 90:0 91:0.014875814 92:0.0011953779 93:0.00013281976 94:0 95:0.0098286625 96:0.005047151 97:0.0025235755 98:0.051135609 99:0.0034533139 100:0 101:0 102:0 103:0 104:0 105:0 106:0 107:0 108:0 109:0 110:0 111:0 112:0 113:0 114:0.028423429 115:0.00013281976 116:0.025235755 117:0.010758401 118:0.002789215 119:0.00026563953 120:0.0066409882 121:0 122:0.00079691858 123:0 124:0 125:0 126:0.026298313 127:0 128:0 129:0.053127905 130:0.088192323 131:0.092973835 132:0.0061097091 133:0.018594767 134:0.0013281976 135:0.00039845929 136:0.0015938372 137:0 138:0.0114225 139:0.0049143313 140:0.021782441 141:0.0092973835 142:0 143:0.0049143313 144:0 145:0.011688139 146:0.0013281976 147:0 148:0.014875814 149:0.0091645637 150:0 151:0.00066409882 152:0 153:0 154:0 155:0 156:0 157:0 
1 0 1:0.02170767 2:0.014954173 3:0.004341534 4:0.0033767487 5:0 6:0.001447178 7:0.00024119633 8:0 9:0.0091654607 10:0.060299083 11:0.0033767487 12:0 13:0 14:0.086589484 15:0.017366136 16:0 17:0.000723589 18:0 19:0 20:0 21:0 22:0 23:0 24:0 25:0 26:0 27:0.065846599 28:0.013748191 29:0.020742885 30:0.012783406 31:0 32:0.002170767 33:0 34:0 35:0 36:0 37:0 38:0 39:0 40:0 41:0 42:0 43:0 44:0 45:0 46:0 47:0 48:0 49:0 50:0 51:0 52:0 53:0 54:0 55:0 56:0 57:0.00024119633 58:0 59:0.013989387 60:0.003617945 61:0.00048239267 62:0 63:0.009406657 64:0 65:0.00024119633 66:0 67:0 68:0 69:0 70:0 71:0 72:0 73:0.002170767 74:0 75:0.006512301 76:0.033767487 77:0.0262904 78:0.0033767487 79:0.0096478534 80:0 81:0.00024119633 82:0.00024119633 83:0 84:0 85:0 86:0.000723589 87:0.0012059817 88:0 89:0 90:0 91:0.0074770863 92:0.0033767487 93:0 94:0 95:0.0045827303 96:0.0067534973 97:0.0031355523 98:0.048239267 99:0.0024119633 100:0 101:0 102:0 103:0 104:0 105:0 106:0 107:0 108:0 109:0 110:0 111:0 112:0 113:0 114:0.027978775 115:0 116:0.030149542 117:0.010130246 118:0.002894356 119:0 120:0.0026531597 121:0 122:0.0012059817 123:0 124:0 125:0 126:0.022431259 127:0 128:0 129:0.075976845 130:0.12132176 131:0.074529667 132:0.011095031 133:0.0098890497 134:0.000723589 135:0 136:0.00096478534 137:0 138:0.013506995 139:0.0053063193 140:0.023396044 141:0.0060299083 142:0 143:0.0074770863 144:0 145:0.005788712 146:0.0012059817 147:0 148:0.007959479 149:0.010130246 150:0 151:0.00024119633 152:0 153:0 154:0 155:0 156:0 157:0 
1 0 1:0.024054983 2:0.013745704 3:0.0034364261 4:0.0068728522 5:0 6:0 7:0 8:0 9:0 10:0.041237113 11:0.013745704 12:0 13:0 14:0.096219931 15:0.0068728522 16:0 17:0 18:0 19:0 20:0 21:0 22:0 23:0 24:0 25:0 26:0 27:0.068728522 28:0.020618557 29:0.017182131 30:0 31:0 32:0 33:0 34:0 35:0 36:0 37:0 38:0 39:0 40:0 41:0 42:0 43:0 44:0 45:0 46:0 47:0 48:0 49:0 50:0 51:0 52:0 53:0 54:0 55:0 56:0 57:0 58:0 59:0.017182131 60:0.0068728522 61:0 62:0 63:0.013745704 64:0 65:0 66:0 67:0 68:0 69:0 70:0 71:0 72:0 73:0 74:0 75:0.013745704 76:0.017182131 77:0.037800687 78:0.0034364261 79:0.024054983 80:0 81:0 82:0 83:0 84:0 85:0 86:0 87:0 88:0 89:0 90:0 91:0.0034364261 92:0 93:0 94:0 95:0 96:0 97:0.010309278 98:0.075601375 99:0.017182131 100:0 101:0 102:0 103:0 104:0 105:0 106:0 107:0 108:0 109:0 110:0 111:0 112:0 113:0 114:0.024054983 115:0 116:0.010309278 117:0.0068728522 118:0 119:0 120:0 121:0 122:0.0034364261 123:0 124:0 125:0 126:0.030927835 127:0 128:0 129:0.058419244 130:0.12714777 131:0.075601375 132:0.0068728522 133:0.010309278 134:0 135:0 136:0 137:0 138:0.0068728522 139:0.0068728522 140:0.034364261 141:0 142:0 143:0.0068728522 144:0 145:0.0034364261 146:0 147:0 148:0.027491409 149:0.0068728522 150:0 151:0 152:0 153:0 154:0 155:0 156:0 157:0 
1 0 1:0.024824356 2:0.014519906 3:0.0056206089 4:0.0018735363 5:0 6:0.0028103044 7:0.0042154567 8:0.00093676815 9:0.011709602 10:0.055737705 11:0.00046838407 12:0 13:0 14:0.077283372 15:0.011709602 16:0 17:0.0018735363 18:0 19:0 20:0 21:0 22:0 23:0 24:0 25:0 26:0 27:0.045433255 28:0.016393443 29:0.018266979 30:0.0056206089 31:0 32:0.0028103044 33:0 34:0 35:0.0014051522 36:0 37:0 38:0 39:0 40:0 41:0 42:0 43:0 44:0 45:0 46:0 47:0 48:0 49:0 50:0 51:0 52:0 53:0 54:0 55:0 56:0 57:0.0014051522 58:0 59:0.022014052 60:0.0074941452 61:0.00046838407 62:0 63:0.0088992974 64:0 65:0 66:0 67:0 68:0 69:0 70:0 71:0 72:0 73:0.0014051522 74:0 75:0.0079625293 76:0.033723653 77:0.021077283 78:0.0046838407 79:0.0051522248 80:0 81:0 82:0 83:0 84:0 85:0 86:0.00046838407 87:0.0014051522 88:0 89:0 90:0 91:0.0032786885 92:0.0028103044 93:0 94:0 95:0.0023419204 96:0.0070257611 97:0.0070257611 98:0.045901639 99:0.00093676815 100:0 101:0 102:0 103:0 104:0 105:0 106:0 107:0 108:0 109:0 110:0 111:0 112:0 113:0 114:0.034660422 115:0.00046838407 116:0.023887588 117:0.013114754 118:0.0056206089 119:0 120:0.00093676815 121:0 122:0.00093676815 123:0 124:0 125:0 126:0.02529274 127:0 128:0 129:0.096955504 130:0.12974239 131:0.056206089 132:0.018735363 133:0.01498829 134:0.00046838407 135:0 136:0.00093676815 137:0 138:0.01030445 139:0.0088992974 140:0.021545667 141:0.0098360656 142:0 143:0.0070257611 144:0 145:0.0098360656 146:0.0014051522 147:0 148:0.0098360656 149:0.0088992974 150:0 151:0.00046838407 152:0 153:0 154:0 155:0 156:0 157:0 
1 0 1:0.015990862 2:0.023700742 3:0.0042832667 4:0.0029982867 5:0 6:0.00128498 7:0.00042832667 8:0.00057110223 9:0.010708167 10:0.053398058 11:0.00057110223 12:0 13:0 14:0.05396916 15:0.012421473 16:0 17:0.0015705311 18:0 19:0 20:0 21:0 22:0 23:0 24:0 25:0 26:0 27:0.039977156 28:0.0067104512 29:0.017418618 30:0.014277556 31:0 32:0.0052826956 33:0 34:0 35:0 36:0 37:0.00028555111 38:0 39:0 40:0 41:0 42:0 43:0 44:0 45:0 46:0 47:0 48:0 49:0 50:0 51:0 52:0 53:0 54:0 55:0 56:0.00042832667 57:0.00028555111 58:0 59:0.0385494 60:0.0057110223 61:0.00128498 62:0 63:0.0092804112 64:0 65:0.00014277556 66:0 67:0.00028555111 68:0 69:0 70:0 71:0 72:0 73:0.00085665334 74:0 75:0.0081382067 76:0.017133067 77:0.022844089 78:0.0037121645 79:0.0044260423 80:0 81:0 82:0 83:0 84:0.00028555111 85:0 86:0.00028555111 87:0.00014277556 88:0 89:0 90:0 91:0.0011422045 92:0.0022844089 93:0 94:0 95:0.0022844089 96:0.0052826956 97:0.0064249001 98:0.05396916 99:0.0017133067 100:0 101:0 102:0 103:0 104:0 105:0 106:0 107:0 108:0 109:0 110:0 111:0 112:0 113:0 114:0.014991433 115:0 116:0.015276985 117:0.0128498 118:0.0042832667 119:0 120:0.00256996 121:0 122:0.00028555111 123:0 124:0 125:0 126:0.016990291 127:0.00014277556 128:0 129:0.12806967 130:0.13292404 131:0.040262707 132:0.024557396 133:0.018418047 134:0.0027127356 135:0.00014277556 136:0 137:0 138:0.01156482 139:0.0057110223 140:0.038834951 141:0.0085665334 142:0 143:0.013420902 144:0 145:0.014277556 146:0.0017133067 147:0 148:0.02055968 149:0.01670474 150:0 151:0.0014277556 152:0 153:0 154:0 155:0 156:0 157:0 
1 0 1:0 2:0 3:0 4:0 5:0 6:0 7:0 8:0 9:0 10:0 11:0 12:0 13:0 14:0 15:0 16:0 17:0 18:0 19:0 20:0 21:0 22:0 23:0 24:0 25:0 26:0 27:0 28:0 29:0 30:0 31:0 32:0 33:0 34:0 35:0 36:0 37:0 38:0 39:0 40:0 41:0 42:0 43:0 44:0 45:0 46:0 47:0 48:0 49:0 50:0 51:0 52:0 53:0 54:0 55:0 56:0 57:0 58:0 59:0 60:0 61:0 62:0 63:0 64:0 65:0 66:0 67:0 68:0 69:0 70:0 71:0 72:0 73:0 74:0 75:0 76:0 77:0 78:0 79:0 80:0 81:0 82:0 83:0 84:0 85:0 86:0 87:0 88:0 89:0 90:0 91:0 92:0 93:0 94:0 95:0 96:0 97:0 98:0 99:0 100:0 101:0 102:0 103:0 104:0 105:0 106:0 107:0 108:0 109:0 110:0 111:0 112:0 113:0 114:0 115:0 116:0 117:0 118:0 119:0 120:0 121:0 122:0 123:0 124:0 125:0 126:0 127:0 128:0 129:1 130:0 131:0 132:0 133:0 134:0 135:0 136:0 137:0 138:0 139:0 140:0 141:0 142:0 143:0 144:0 145:0 146:0 147:0 148:0 149:0 150:0 151:0 152:0 153:0 154:0 155:0 156:0 157:0 
1 0 1:0.022570373 2:0.016736721 3:0.0030824099 4:0.0036683225 5:2.5474462e-05 6:0.0015794166 7:0.00045854031 8:0.00025474462 9:0.011769201 10:0.065392944 11:0.0027512419 12:2.5474462e-05 13:0 14:0.090052223 15:0.011055916 16:0 17:0.0014520443 18:0 19:7.6423386e-05 20:0 21:0 22:0 23:0 24:0 25:0 26:0 27:0.051178194 28:0.01587059 29:0.021729716 30:0.012278691 31:0 32:0.0050948924 33:0 34:0 35:0.00030569354 36:0 37:2.5474462e-05 38:0 39:0 40:0 41:0 42:0 43:0 44:0 45:0 46:0 47:0 48:0 49:0 50:0 51:0 52:0 53:0 54:0 55:0 56:0.00017832123 57:0.00020379569 58:0 59:0.014545918 60:0.003974016 61:0.00073875939 62:0 63:0.015386575 64:0 65:0.00035664247 66:0 67:7.6423386e-05 68:0 69:0 70:0 71:0 72:0 73:0.0018086868 74:0 75:0.012890078 76:0.024964973 77:0.025652783 78:0.00081518278 79:0.0054260604 80:2.5474462e-05 81:0 82:2.5474462e-05 83:0 84:0.00010189785 85:0 86:0.0020634314 87:0.00012737231 88:0 89:7.6423386e-05 90:0 91:0.0068016813 92:0.0015284677 93:2.5474462e-05 94:0 95:0.0081518278 96:0.0046108776 97:0.0052732136 98:0.049828047 99:0.0031333588 100:0 101:0 102:0 103:0 104:0 105:0 106:0 107:0 108:0 109:0 110:0 111:0 112:0 113:0 114:0.025448987 115:0.00022927016 116:0.020226723 117:0.016685773 118:0.0029295631 119:0 120:0.0013501465 121:0 122:0.00081518278 123:0 124:0 125:0 126:0.019258693 127:0.00040759139 128:0 129:0.091020252 130:0.11297924 131:0.060247102 132:0.013603363 133:0.015997962 134:0.00076423386 135:0.00010189785 136:0.00078970832 137:2.5474462e-05 138:0.01398548 139:0.0069290536 140:0.021118329 141:0.0066233601 142:0 143:0.011514457 144:5.0948924e-05 145:0.0099095657 146:0.00091708063 147:0 148:0.010291683 149:0.0090179595 150:0 151:0.0005349637 152:0 153:0 154:0 155:0 156:0 157:0 
1 0 1:0.012367491 2:0.011189635 3:0.0023557126 4:0.0029446408 5:0 6:0.0035335689 7:0 8:0.0017667845 9:0.0082449941 10:0.10954064 11:0.011189635 12:0.00058892815 13:0 14:0.037691402 15:0.0082449941 16:0 17:0.0035335689 18:0 19:0.0011778563 20:0 21:0 22:0 23:0 24:0 25:0 26:0 27:0.020612485 28:0.014134276 29:0.016489988 30:0.012956419 31:0 32:0.0041224971 33:0 34:0 35:0.00058892815 36:0 37:0.00058892815 38:0 39:0 40:0 41:0 42:0 43:0 44:0 45:0 46:0.0011778563 47:0.00058892815 48:0 49:0.00058892815 50:0 51:0 52:0 53:0 54:0 55:0 56:0.00058892815 57:0.00058892815 58:0 59:0.020612485 60:0.007656066 61:0.0011778563 62:0 63:0.015312132 64:0 65:0.0017667845 66:0 67:0 68:0 69:0 70:0 71:0 72:0 73:0.0053003534 74:0 75:0.0035335689 76:0.03180212 77:0.022968198 78:0.016489988 79:0.0058892815 80:0.00058892815 81:0 82:0 83:0 84:0.00058892815 85:0 86:0.0017667845 87:0.014134276 88:0 89:0.0011778563 90:0 91:0.0029446408 92:0.0047114252 93:0 94:0 95:0.0064782097 96:0.011189635 97:0.0070671378 98:0.04770318 99:0.0047114252 100:0.00058892815 101:0 102:0 103:0 104:0 105:0 106:0 107:0 108:0 109:0 110:0 111:0 112:0 113:0 114:0.02532391 115:0.0011778563 116:0.011778563 117:0.0064782097 118:0.00058892815 119:0 120:0 121:0 122:0 123:0 124:0 125:0 126:0.018256773 127:0.0011778563 128:0.00058892815 129:0.086572438 130:0.106596 131:0.051236749 132:0.029446408 133:0.02237927 134:0.0017667845 135:0 136:0.00058892815 137:0.0029446408 138:0.011778563 139:0.0041224971 140:0.047114252 141:0.0035335689 142:0 143:0.0088339223 144:0.00058892815 145:0.015312132 146:0 147:0 148:0.0082449941 149:0.0088339223 150:0 151:0.0011778563 152:0 153:0 154:0 155:0 156:0 157:0 
1 0 1:0.016388276 2:0.01134573 3:0.0025212732 4:0.0037819099 5:0 6:0.0078789789 7:0.0066183423 8:0.00094547747 9:0.015757958 10:0.091396155 11:0.005988024 12:0 13:0 14:0.039394894 15:0.01859439 16:0 17:0.0037819099 18:0 19:0.0015757958 20:0 21:0 22:0 23:0 24:0 25:0 26:0 27:0.021745982 28:0.008194138 29:0.01103057 30:0.0078789789 31:0 32:0.0053577056 33:0 34:0 35:0.00031515916 36:0 37:0 38:0 39:0 40:0 41:0 42:0 43:0 44:0 45:0.00063031831 46:0.00063031831 47:0.00031515916 48:0 49:0.00031515916 50:0 51:0 52:0 53:0 54:0 55:0 56:0.00063031831 57:0.00031515916 58:0 59:0.030255279 60:0.012921525 61:0.0012606366 62:0 63:0.01481248 64:0 65:0.0022061141 66:0 67:0.00063031831 68:0 69:0 70:0 71:0 72:0 73:0.0012606366 74:0 75:0.020485345 76:0.016703435 77:0.019224708 78:0.0053577056 79:0.0025212732 80:0 81:0.00063031831 82:0 83:0 84:0 85:0 86:0.0028364324 87:0.005988024 88:0 89:0 90:0 91:0.0034667507 92:0.0028364324 93:0.00031515916 94:0 95:0.0053577056 96:0.0022061141 97:0.0094547747 98:0.04097069 99:0.0025212732 100:0 101:0 102:0 103:0 104:0 105:0 106:0 107:0 108:0 109:0 110:0 111:0 112:0 113:0 114:0.0223763 115:0.00063031831 116:0.0075638197 117:0.0066183423 118:0.0015757958 119:0 120:0.00031515916 121:0 122:0.00031515916 123:0 124:0 125:0 126:0.020170186 127:0.00063031831 128:0 129:0.10936023 130:0.13362748 131:0.042546486 132:0.032461393 133:0.018279231 134:0.0031515916 135:0.00063031831 136:0 137:0.0028364324 138:0.0088244564 139:0.0091396155 140:0.028679483 141:0.0072486606 142:0 143:0.0072486606 144:0.00094547747 145:0.012291207 146:0.00094547747 147:0 148:0.017018594 149:0.012921525 150:0 151:0.004097069 152:0 153:0 154:0 155:0 156:0 157:0 
1 0 1:0.017502524 2:0.017502524 3:0.0053853921 4:0.0023561091 5:0 6:0.0050488051 7:0.001346348 8:0.002019522 9:0.0090878492 10:0.099293167 11:0.0047122181 12:0 13:0.002019522 14:0.031975766 15:0.0057219791 16:0 17:0.017839111 18:0 19:0.0074049142 20:0 21:0 22:0 23:0 24:0 25:0 26:0 27:0.023224504 28:0.014473241 29:0.02019522 30:0.018848872 31:0 32:0.0023561091 33:0 34:0 35:0.001346348 36:0 37:0 38:0 39:0 40:0 41:0 42:0 43:0 44:0 45:0.00033658701 46:0.00067317402 47:0.00033658701 48:0 49:0.00033658701 50:0 51:0 52:0 53:0 54:0 55:0 56:0.00033658701 57:0 58:0 59:0.024907439 60:0.0084146752 61:0.00067317402 62:0 63:0.0063951531 64:0 65:0.0057219791 66:0 67:0.0074049142 68:0 69:0 70:0 71:0 72:0 73:0.00033658701 74:0 75:0.010770784 76:0.028273309 77:0.018175698 78:0.0060585661 79:0.0043756311 80:0 81:0.00033658701 82:0 83:0 84:0.00033658701 85:0 86:0.0023561091 87:0.001009761 88:0 89:0 90:0 91:0.002019522 92:0.0057219791 93:0 94:0 95:0.001682935 96:0.0023561091 97:0.0047122181 98:0.043419724 99:0.0023561091 100:0 101:0 102:0 103:0 104:0 105:0 106:0 107:0 108:0 109:0 110:0 111:0 112:0 113:0 114:0.017165937 115:0.001346348 116:0.015146415 117:0.0067317402 118:0.001009761 119:0 120:0.001009761 121:0 122:0.001346348 123:0 124:0 125:0 126:0.024234265 127:0.001346348 128:0 129:0.097273645 130:0.13160552 131:0.038034332 132:0.037024571 133:0.017839111 134:0.0023561091 135:0 136:0 137:0.0026926961 138:0.016492763 139:0.0063951531 140:0.030292831 141:0.0030292831 142:0 143:0.011780545 144:0.00033658701 145:0.012790306 146:0.00067317402 147:0 148:0.0067317402 149:0.0053853921 150:0 151:0.010434197 152:0 153:0 154:0 155:0 156:0 157:0 
1 0 1:0.023955774 2:0.015356265 3:0.0082923833 4:0.0033783784 5:0 6:0.0024570025 7:0.0021498771 8:0.00061425061 9:0.0089066339 10:0.097358722 11:0.0036855037 12:0 13:0 14:0.057125307 15:0.018427518 16:0 17:0.0030712531 18:0 19:0.0027641278 20:0 21:0 22:0 23:0 24:0 25:0 26:0 27:0.016891892 28:0.0089066339 29:0.012899263 30:0.010749386 31:0 32:0.0055282555 33:0.00030712531 34:0 35:0.00061425061 36:0 37:0.00030712531 38:0 39:0 40:0 41:0 42:0 43:0 44:0 45:0 46:0.0015356265 47:0.0012285012 48:0 49:0 50:0 51:0 52:0 53:0 54:0 55:0 56:0 57:0.00030712531 58:0 59:0.031019656 60:0.013513514 61:0.00030712531 62:0 63:0.013206388 64:0 65:0.00030712531 66:0 67:0.0012285012 68:0 69:0 70:0 71:0 72:0 73:0.00030712531 74:0.00030712531 75:0.011363636 76:0.026105651 77:0.021191646 78:0.010749386 79:0.0042997543 80:0 81:0 82:0 83:0 84:0 85:0.00030712531 86:0.003992629 87:0.0052211302 88:0 89:0.00030712531 90:0 91:0.0027641278 92:0.0042997543 93:0 94:0 95:0.003992629 96:0.0021498771 97:0.0073710074 98:0.057125307 99:0.0030712531 100:0 101:0 102:0 103:0 104:0 105:0 106:0 107:0 108:0 109:0 110:0 111:0 112:0 113:0 114:0.019348894 115:0.0018427518 116:0.012285012 117:0.0064496314 118:0.00061425061 119:0 120:0 121:0 122:0.00030712531 123:0 124:0 125:0 126:0.014742015 127:0.00030712531 128:0 129:0.092751843 130:0.10841523 131:0.054668305 132:0.03531941 133:0.019963145 134:0.0036855037 135:0.0012285012 136:0 137:0.0033783784 138:0.011056511 139:0.0055282555 140:0.026105651 141:0.0092137592 142:0 143:0.0064496314 144:0.00030712531 145:0.018120393 146:0.00030712531 147:0 148:0.0055282555 149:0.0098280098 150:0 151:0.00092137592 152:0 153:0 154:0 155:0 156:0 157:0 
1 0 1:0.018284107 2:0.0070323488 3:0.0042194093 4:0.0014064698 5:0 6:0.0014064698 7:0.005625879 8:0.0014064698 9:0.014064698 10:0.088607595 11:0.011251758 12:0 13:0 14:0.073136428 15:0.012658228 16:0 17:0.0014064698 18:0 19:0 20:0 21:0 22:0 23:0 24:0 25:0 26:0 27:0.023909986 28:0.012658228 29:0.012658228 30:0.0084388186 31:0 32:0.0014064698 33:0 34:0 35:0 36:0 37:0 38:0 39:0 40:0 41:0 42:0 43:0 44:0 45:0 46:0.0028129395 47:0 48:0 49:0 50:0 51:0 52:0 53:0 54:0 55:0 56:0 57:0 58:0 59:0.021097046 60:0.012658228 61:0 62:0 63:0.011251758 64:0 65:0 66:0 67:0 68:0 69:0 70:0 71:0 72:0 73:0 74:0 75:0.016877637 76:0.018284107 77:0.016877637 78:0.005625879 79:0.0028129395 80:0 81:0 82:0 83:0 84:0 85:0 86:0.005625879 87:0.0028129395 88:0 89:0 90:0 91:0.0070323488 92:0.0028129395 93:0 94:0 95:0.0014064698 96:0 97:0.0028129395 98:0.078762307 99:0.0070323488 100:0 101:0 102:0 103:0 104:0 105:0 106:0 107:0 108:0 109:0 110:0 111:0 112:0 113:0 114:0.014064698 115:0.0014064698 116:0.018284107 117:0 118:0.0042194093 119:0 120:0 121:0 122:0 123:0 124:0 125:0 126:0.012658228 127:0 128:0 129:0.12939522 130:0.12376934 131:0.045007032 132:0.018284107 133:0.018284107 134:0.0014064698 135:0 136:0.0028129395 137:0 138:0.016877637 139:0.0014064698 140:0.028129395 141:0.0070323488 142:0 143:0.0098452883 144:0 145:0.014064698 146:0 147:0 148:0.012658228 149:0.0042194093 150:0 151:0 152:0 153:0 154:0 155:0 156:0 157:0 
1 0 1:0.0083945435 2:0.016789087 3:0.0041972718 4:0.0031479538 5:0 6:0.0020986359 7:0.0020986359 8:0 9:0.010493179 10:0.075550892 11:0.0062959077 12:0 13:0 14:0.070304302 15:0.024134313 16:0 17:0.0041972718 18:0 19:0.0083945435 20:0 21:0 22:0 23:0 24:0 25:0 26:0 27:0.050367261 28:0.0094438615 29:0.017838405 30:0.0073452256 31:0 32:0.0031479538 33:0 34:0 35:0 36:0 37:0 38:0 39:0 40:0 41:0 42:0 43:0 44:0 45:0 46:0 47:0 48:0 49:0.0010493179 50:0 51:0 52:0 53:0 54:0 55:0 56:0 57:0 58:0 59:0.019937041 60:0.0094438615 61:0 62:0 63:0.012591815 64:0 65:0.0010493179 66:0 67:0.0010493179 68:0 69:0 70:0 71:0 72:0 73:0 74:0 75:0.018887723 76:0.018887723 77:0.012591815 78:0.0062959077 79:0.0010493179 80:0 81:0 82:0 83:0 84:0 85:0 86:0 87:0.0010493179 88:0 89:0 90:0 91:0.0020986359 92:0.0031479538 93:0 94:0 95:0.0020986359 96:0.0020986359 97:0.0062959077 98:0.044071354 99:0.0031479538 100:0 101:0 102:0 103:0 104:0 105:0 106:0 107:0 108:0 109:0 110:0 111:0 112:0 113:0 114:0.036726128 115:0 116:0.022035677 117:0.0031479538 118:0.0020986359 119:0 120:0 121:0 122:0 123:0 124:0 125:0 126:0.015739769 127:0 128:0 129:0.10912907 130:0.11752361 131:0.050367261 132:0.043022036 133:0.014690451 134:0.0031479538 135:0 136:0 137:0.0031479538 138:0.0094438615 139:0.0041972718 140:0.026232949 141:0.0094438615 142:0 143:0.0062959077 144:0 145:0.0073452256 146:0 147:0 148:0.014690451 149:0.0062959077 150:0 151:0.0041972718 152:0 153:0 154:0 155:0 156:0 157:0 
1 0 1:0.017147311 2:0.014029618 3:0.0054559626 4:0.0015588465 5:0 6:0.0031176929 7:0.0015588465 8:0.0015588465 9:0.012470772 10:0.095089634 11:0.010911925 12:0 13:0 14:0.030397506 15:0.0054559626 16:0 17:0.029618083 18:0 19:0.0077942323 20:0 21:0 22:0 23:0 24:0 25:0 26:0 27:0.027279813 28:0.0093530787 29:0.020265004 30:0.014809041 31:0 32:0 33:0 34:0 35:0.00077942323 36:0 37:0.0015588465 38:0 39:0 40:0 41:0 42:0 43:0 44:0 45:0 46:0 47:0.0015588465 48:0 49:0 50:0 51:0 52:0 53:0 54:0 55:0 56:0 57:0.00077942323 58:0 59:0.028838659 60:0.012470772 61:0 62:0 63:0.017147311 64:0 65:0.0031176929 66:0 67:0.0054559626 68:0 69:0 70:0 71:0 72:0 73:0 74:0 75:0.017147311 76:0.022603274 77:0.018706157 78:0.0015588465 79:0.0015588465 80:0 81:0 82:0 83:0 84:0 85:0 86:0 87:0 88:0 89:0 90:0 91:0.0015588465 92:0.00077942323 93:0 94:0 95:0.0015588465 96:0.0038971161 97:0.0054559626 98:0.041309431 99:0.0015588465 100:0 101:0 102:0 103:0 104:0 105:0 106:0 107:0 108:0 109:0 110:0 111:0 112:0 113:0 114:0.014029618 115:0.0038971161 116:0.007014809 117:0.0054559626 118:0.0031176929 119:0 120:0.0015588465 121:0 122:0 123:0 124:0 125:0 126:0.010911925 127:0 128:0 129:0.11223694 130:0.13717849 131:0.043647701 132:0.032735776 133:0.023382697 134:0.0054559626 135:0 136:0 137:0.0015588465 138:0.015588465 139:0.011691348 140:0.033515199 141:0.0062353858 142:0 143:0.0085736555 144:0 145:0.010132502 146:0 147:0 148:0.0031176929 149:0.0077942323 150:0 151:0.0038971161 152:0 153:0 154:0 155:0 156:0 157:0 
1 0 1:0.023509656 2:0.021830395 3:0.0025188917 4:0.0050377834 5:0 6:0.0033585223 7:0 8:0.0016792611 9:0.010075567 10:0.093198992 11:0.0025188917 12:0 13:0 14:0.031066331 15:0.011754828 16:0 17:0.020151134 18:0 19:0.01427372 20:0 21:0 22:0 23:0 24:0 25:0 26:0 27:0.01511335 28:0.0075566751 29:0.019311503 30:0.019311503 31:0 32:0.0041981528 33:0 34:0 35:0.0025188917 36:0 37:0.00083963056 38:0 39:0 40:0 41:0 42:0 43:0 44:0 45:0 46:0.00083963056 47:0 48:0 49:0 50:0 51:0 52:0 53:0 54:0 55:0 56:0.00083963056 57:0 58:0 59:0.024349286 60:0.010075567 61:0 62:0 63:0.015952981 64:0 65:0.0033585223 66:0 67:0.0033585223 68:0 69:0 70:0 71:0 72:0 73:0 74:0 75:0.013434089 76:0.021830395 77:0.023509656 78:0.0067170445 79:0.0050377834 80:0 81:0 82:0 83:0 84:0 85:0 86:0.0016792611 87:0.00083963056 88:0 89:0 90:0 91:0.0033585223 92:0.0067170445 93:0 94:0 95:0.0033585223 96:0.0025188917 97:0.0050377834 98:0.049538203 99:0.0058774139 100:0 101:0 102:0 103:0 104:0 105:0 106:0 107:0 108:0 109:0 110:0 111:0 112:0 113:0 114:0.01427372 115:0.0041981528 116:0.011754828 117:0.0067170445 118:0 119:0 120:0 121:0 122:0.0033585223 123:0 124:0 125:0 126:0.017632242 127:0.00083963056 128:0 129:0.10495382 130:0.13602015 131:0.037783375 132:0.02938707 133:0.017632242 134:0.0016792611 135:0.00083963056 136:0 137:0.0016792611 138:0.0075566751 139:0.010075567 140:0.036104114 141:0.0025188917 142:0 143:0.0058774139 144:0 145:0.012594458 146:0 147:0 148:0.0058774139 149:0.0075566751 150:0 151:0.0050377834 152:0 153:0 154:0 155:0 156:0 157:0 
1 0 1:0.016840417 2:0.013231756 3:0.0032076985 4:0.0032076985 5:0 6:0.0068163593 7:0.0056134723 8:0.0028067362 9:0.012028869 10:0.089414595 11:0.0084202085 12:0 13:0 14:0.062951083 15:0.016038492 16:0 17:0.011226945 18:0 19:0.0016038492 20:0 21:0 22:0 23:0 24:0 25:0 26:0 27:0.019246191 28:0.013231756 29:0.018444266 30:0.01042502 31:0 32:0.0040096231 33:0 34:0 35:0.00080192462 36:0 37:0.00080192462 38:0 39:0 40:0 41:0 42:0 43:0 44:0 45:0 46:0.0020048115 47:0 48:0 49:0 50:0 51:0 52:0 53:0 54:0 55:0 56:0.00040096231 57:0 58:0 59:0.016038492 60:0.0084202085 61:0.0020048115 62:0 63:0.019246191 64:0 65:0.0020048115 66:0 67:0.00040096231 68:0 69:0 70:0 71:0 72:0 73:0.0024057739 74:0.00080192462 75:0.010825982 76:0.018845229 77:0.021651965 78:0.0020048115 79:0.00521251 80:0 81:0.00040096231 82:0 83:0 84:0.00080192462 85:0 86:0 87:0.00080192462 88:0 89:0 90:0 91:0.0032076985 92:0.0036086608 93:0 94:0 95:0.0024057739 96:0.0044105854 97:0.0048115477 98:0.047714515 99:0.0032076985 100:0 101:0 102:0 103:0 104:0 105:0 106:0 107:0 108:0 109:0 110:0 111:0 112:0 113:0 114:0.018444266 115:0.00521251 116:0.013231756 117:0.00521251 118:0.0020048115 119:0 120:0.0012028869 121:0 122:0.0016038492 123:0 124:0 125:0 126:0.012429832 127:0 128:0 129:0.11467522 130:0.13071371 131:0.053327987 132:0.02085004 133:0.017642342 134:0.0048115477 135:0.00040096231 136:0 137:0.0040096231 138:0.0096230954 139:0.0048115477 140:0.024057739 141:0.0084202085 142:0 143:0.0080192462 144:0 145:0.017241379 146:0.0012028869 147:0 148:0.00521251 149:0.0056134723 150:0 151:0.0060144346 152:0 153:0 154:0 155:0 156:0 157:0 
1 0 1:0.01750547 2:0.014792123 3:0.0036761488 4:0.0036761488 5:0 6:0.0025382932 7:0.0015754923 8:0.0014004376 9:0.012866521 10:0.095667396 11:0.0089277899 12:0.00043763676 13:0 14:0.063544858 15:0.013829322 16:0 17:0.0021006565 18:0 19:0.00043763676 20:0 21:0 22:0 23:0 24:0 25:0 26:0 27:0.022932166 28:0.012603939 29:0.016980306 30:0.0060393873 31:0 32:0.0055142232 33:0 34:0 35:0.0001750547 36:0 37:0 38:0 39:0 40:0 41:0 42:0 43:0 44:0 45:0.00052516411 46:0.0021881838 47:0.0018380744 48:0 49:0.0019256018 50:0 51:0 52:0 53:0 54:0 55:0 56:0.00061269147 57:0 58:0 59:0.021006565 60:0.0102407 61:0.0027133479 62:0 63:0.012253829 64:0 65:0.00043763676 66:0 67:0.00052516411 68:0 69:0 70:0 71:0 72:0 73:0.0041137856 74:0 75:0.014704595 76:0.022757112 77:0.02214442 78:0.012778993 79:0.0057768053 80:0.0001750547 81:0 82:0.00043763676 83:0 84:0.00035010941 85:0 86:0.0016630197 87:0.0030634573 88:0 89:0.00035010941 90:0 91:0.0038512035 92:0.0028884026 93:0 94:0 95:0.0082275711 96:0.006214442 97:0.0070897155 98:0.054354486 99:0.0027133479 100:0 101:0 102:0 103:0 104:0 105:0 106:0 107:0 108:0 109:0 110:0 111:0 112:0 113:8.7527352e-05 114:0.024682713 115:0.00052516411 116:0.017067834 117:0.0084901532 118:0.0019256018 119:0 120:0.00078774617 121:0 122:0.00043763676 123:0 124:0 125:0 126:0.018468271 127:0.00043763676 128:0 129:0.095842451 130:0.1004814 131:0.04595186 132:0.020218818 133:0.019256018 134:0.0022757112 135:0 136:0.00043763676 137:0.0057768053 138:0.010153173 139:0.0053391685 140:0.031334792 141:0.012166302 142:0 143:0.011028446 144:0.00026258206 145:0.013391685 146:0.00078774617 147:0 148:0.0086652079 149:0.007702407 150:0 151:0.00087527352 152:0 153:0 154:0 155:0 156:0 157:0 
1 0 1:0.02037037 2:0.014814815 3:0.0064814815 4:0.0055555556 5:0 6:0.0018518519 7:0.00092592593 8:0.0027777778 9:0.010185185 10:0.11111111 11:0.0055555556 12:0 13:0 14:0.055555556 15:0.012037037 16:0 17:0.0055555556 18:0 19:0.0027777778 20:0 21:0 22:0 23:0 24:0 25:0 26:0 27:0.031481481 28:0.0092592593 29:0.02037037 30:0.0092592593 31:0 32:0.0018518519 33:0 34:0 35:0.00092592593 36:0 37:0 38:0 39:0 40:0 41:0 42:0 43:0 44:0 45:0 46:0.0027777778 47:0 48:0 49:0 50:0 51:0 52:0 53:0 54:0 55:0 56:0 57:0 58:0 59:0.021296296 60:0.014814815 61:0 62:0 63:0.012037037 64:0 65:0.0018518519 66:0 67:0.0018518519 68:0 69:0 70:0 71:0 72:0 73:0 74:0 75:0.012962963 76:0.015740741 77:0.030555556 78:0.015740741 79:0.0046296296 80:0 81:0 82:0 83:0 84:0 85:0 86:0 87:0.0018518519 88:0 89:0 90:0 91:0.0037037037 92:0.00092592593 93:0 94:0 95:0.0046296296 96:0.0018518519 97:0.0037037037 98:0.061111111 99:0.0027777778 100:0 101:0 102:0 103:0 104:0 105:0 106:0 107:0 108:0 109:0 110:0 111:0 112:0 113:0 114:0.024074074 115:0.00092592593 116:0.0083333333 117:0.0018518519 118:0.00092592593 119:0 120:0 121:0 122:0 123:0 124:0 125:0 126:0.012962963 127:0.00092592593 128:0 129:0.10185185 130:0.094444444 131:0.050925926 132:0.038888889 133:0.015740741 134:0.0083333333 135:0.00092592593 136:0 137:0.0083333333 138:0.011111111 139:0.0046296296 140:0.024074074 141:0.0064814815 142:0 143:0.0046296296 144:0 145:0.016666667 146:0.0046296296 147:0 148:0.0027777778 149:0.0055555556 150:0 151:0.0064814815 152:0 153:0 154:0 155:0 156:0 157:0 
1 0 1:0.017787954 2:0.014617823 3:0.0042268404 4:0.0038746037 5:0 6:0.0014089468 7:0.0022895386 8:0.00052835505 9:0.0093342726 10:0.085593519 11:0.0012328285 12:0.00017611835 13:0 14:0.049665375 15:0.0098626277 16:0 17:0.0012328285 18:0 19:0 20:0 21:0 22:0 23:0 24:0 25:0 26:0 27:0.033990842 28:0.018492427 29:0.017435717 30:0.006516379 31:0 32:0.0066924974 33:0 34:0 35:0.0003522367 36:0 37:0 38:0 39:0 40:0 41:0 42:0 43:0 44:0 45:0 46:0 47:0 48:0 49:0 50:0 51:0 52:0 53:0 54:0 55:0 56:0.00088059176 57:0 58:0 59:0.022014794 60:0.0056357872 61:0.0031701303 62:0 63:0.014089468 64:0 65:0.00088059176 66:0 67:0 68:0 69:0 70:0 71:0 72:0 73:0.0056357872 74:0 75:0.010743219 76:0.033462487 77:0.017787954 78:0.0044029588 79:0.0070447341 80:0 81:0 82:0.0010567101 83:0 84:0.0003522367 85:0 86:0.0026417753 87:0.0033462487 88:0 89:0.0003522367 90:0 91:0.0049313138 92:0.003522367 93:0 94:0 95:0.0061641423 96:0.0047551955 97:0.0066924974 98:0.055653399 99:0.0033462487 100:0 101:0 102:0 103:0 104:0 105:0 106:0 107:0 108:0 109:0 110:0 111:0 112:0 113:0 114:0.024832688 115:0.00017611835 116:0.014441705 117:0.01391335 118:0.0015850652 119:0 120:0.0015850652 121:0 122:0.0015850652 123:0 124:0 125:0 126:0.0191969 127:0.00052835505 128:0 129:0.096336738 130:0.10725608 131:0.047551955 132:0.021662557 133:0.021662557 134:0.00088059176 135:0.00017611835 136:0.0026417753 137:0 138:0.012328285 139:0.0058119056 140:0.041387813 141:0.011976048 142:0 143:0.0075730891 144:0.00070447341 145:0.011976048 146:0.0014089468 147:0 148:0.012328285 149:0.01391335 150:0 151:0.00070447341 152:0 153:0 154:0 155:0 156:0 157:0 
1 1 1:0.037698413 2:0.014384921 3:0.0034722222 4:0.0074404762 5:0 6:0.0024801587 7:0.0014880952 8:0.00099206349 9:0.012400794 10:0.0625 11:0.00049603175 12:0 13:0 14:0.072420635 15:0.0024801587 16:0 17:0 18:0 19:0 20:0 21:0 22:0 23:0 24:0 25:0 26:0 27:0.05109127 28:0.0074404762 29:0.017361111 30:0.0074404762 31:0 32:0.0069444444 33:0 34:0 35:0.00049603175 36:0 37:0 38:0 39:0 40:0 41:0 42:0 43:0 44:0 45:0 46:0 47:0 48:0 49:0 50:0 51:0 52:0 53:0 54:0 55:0 56:0.00049603175 57:0 58:0 59:0.02281746 60:0.0034722222 61:0.0014880952 62:0 63:0.0089285714 64:0 65:0.00049603175 66:0 67:0 68:0 69:0 70:0 71:0 72:0 73:0.012896825 74:0 75:0.012400794 76:0.0094246032 77:0.034722222 78:0.001984127 79:0.003968254 80:0 81:0 82:0 83:0 84:0 85:0 86:0.0029761905 87:0.00049603175 88:0 89:0 90:0 91:0.0049603175 92:0.00049603175 93:0 94:0 95:0.0089285714 96:0.0024801587 97:0.0064484127 98:0.048115079 99:0.0044642857 100:0 101:0 102:0 103:0 104:0 105:0 106:0 107:0 108:0 109:0 110:0 111:0 112:0 113:0 114:0.026785714 115:0 116:0.019345238 117:0.019345238 118:0.0094246032 119:0 120:0.0014880952 121:0 122:0.00099206349 123:0 124:0 125:0 126:0.020833333 127:0 128:0 129:0.078373016 130:0.085813492 131:0.080357143 132:0.015376984 133:0.019345238 134:0.00099206349 135:0 136:0.00049603175 137:0 138:0.012896825 139:0.0054563492 140:0.028769841 141:0.017361111 142:0 143:0.0054563492 144:0 145:0.015376984 146:0.003968254 147:0 148:0.013888889 149:0.015376984 150:0 151:0.00099206349 152:0 153:0 154:0 155:0 156:0 157:0 
1 0 1:0 2:0 3:0 4:0 5:0 6:0 7:0 8:0 9:0 10:0.035714286 11:0 12:0 13:0 14:0.125 15:0 16:0 17:0 18:0 19:0 20:0 21:0 22:0 23:0 24:0 25:0 26:0 27:0.035714286 28:0.053571429 29:0.071428571 30:0 31:0 32:0.017857143 33:0 34:0 35:0 36:0 37:0 38:0 39:0 40:0 41:0 42:0 43:0 44:0 45:0 46:0 47:0 48:0 49:0 50:0 51:0 52:0 53:0 54:0 55:0 56:0 57:0 58:0 59:0.035714286 60:0 61:0 62:0 63:0 64:0 65:0 66:0 67:0 68:0 69:0 70:0 71:0 72:0 73:0 74:0 75:0 76:0 77:0.125 78:0 79:0 80:0 81:0 82:0 83:0 84:0 85:0 86:0 87:0 88:0 89:0 90:0 91:0.035714286 92:0 93:0 94:0 95:0.017857143 96:0 97:0 98:0.053571429 99:0 100:0 101:0 102:0 103:0 104:0 105:0 106:0 107:0 108:0 109:0 110:0 111:0 112:0 113:0 114:0 115:0 116:0.035714286 117:0.017857143 118:0 119:0 120:0 121:0 122:0 123:0 124:0 125:0 126:0.017857143 127:0 128:0 129:0.053571429 130:0.053571429 131:0.16071429 132:0 133:0.017857143 134:0 135:0 136:0 137:0 138:0 139:0 140:0.017857143 141:0 142:0 143:0 144:0 145:0 146:0 147:0 148:0.017857143 149:0 150:0 151:0 152:0 153:0 154:0 155:0 156:0 157:0 
1 1 1:0.02133995 2:0.016129032 3:0.0042183623 4:0.0094292804 5:0 6:0.0027295285 7:0.0022332506 8:0.00024813896 9:0.011662531 10:0.078908189 11:0.0027295285 12:0.00099255583 13:0 14:0.079900744 15:0.017617866 16:0 17:0.00024813896 18:0 19:0.00024813896 20:0 21:0 22:0 23:0 24:0 25:0 26:0 27:0.034491315 28:0.010669975 29:0.021091811 30:0.005955335 31:0 32:0.0084367246 33:0 34:0 35:0.00024813896 36:0 37:0 38:0 39:0 40:0 41:0 42:0 43:0 44:0 45:0 46:0 47:0 48:0 49:0 50:0 51:0 52:0 53:0 54:0 55:0 56:0.00024813896 57:0 58:0 59:0.025310174 60:0.0037220844 61:0.0019851117 62:0 63:0.0094292804 64:0 65:0 66:0 67:0 68:0 69:0 70:0 71:0 72:0 73:0.005707196 74:0 75:0.0086848635 76:0.024069479 77:0.038957816 78:0.0019851117 79:0.0049627792 80:0 81:0 82:0.00024813896 83:0 84:0.0017369727 85:0 86:0.0017369727 87:0.00024813896 88:0 89:0.00074441687 90:0 91:0.0086848635 92:0.0024813896 93:0 94:0 95:0.0049627792 96:0.0032258065 97:0.0081885856 98:0.051612903 99:0.0054590571 100:0 101:0 102:0 103:0 104:0 105:0 106:0 107:0 108:0 109:0 110:0 111:0 112:0 113:0 114:0.036228288 115:0 116:0.017617866 117:0.024813896 118:0.0034739454 119:0 120:0.00099255583 121:0 122:0.0012406948 123:0 124:0 125:0 126:0.027791563 127:0.00049627792 128:0 129:0.058560794 130:0.063027295 131:0.081389578 132:0.014143921 133:0.017369727 134:0.0017369727 135:0 136:0.00049627792 137:0 138:0.010918114 139:0.0037220844 140:0.028039702 141:0.0099255583 142:0 143:0.0064516129 144:0.00049627792 145:0.0099255583 146:0.0012406948 147:0 148:0.014888337 149:0.020347395 150:0 151:0.00074441687 152:0 153:0 154:0 155:0 156:0 157:0 
1 0 1:0.017532209 2:0.014875814 3:0.0021251162 4:0.0026563953 5:0 6:0.0013281976 7:0.00079691858 8:0.00039845929 9:0.013149157 10:0.056846859 11:0.0079691858 12:0 13:0 14:0.099083544 15:0.013680436 16:0 17:0.00053127905 18:0 19:0 20:0 21:0 22:0 23:0 24:0 25:0 26:0 27:0.060167353 28:0.020852703 29:0.026165493 30:0.0053127905 31:0 32:0.0034533139 33:0.00026563953 34:0 35:0 36:0 37:0 38:0 39:0 40:0 41:0 42:0 43:0 44:0 45:0 46:0 47:0 48:0 49:0 50:0 51:0 52:0 53:0 54:0 55:0 56:0.00013281976 57:0.00026563953 58:0 59:0.013680436 60:0.0035861336 61:0.00013281976 62:0 63:0.01115686 64:0 65:0.00013281976 66:0 67:0 68:0 69:0 70:0 71:0 72:0 73:0.00039845929 74:0.00053127905 75:0.0075707265 76:0.025368575 77:0.038119272 78:0.0013281976 79:0.0066409882 80:0 81:0 82:0 83:0 84:0.00013281976 85:0 86:0.00092973835 87:0.00066409882 88:0 89:0.00013281976 90:0 91:0.014875814 92:0.0011953779 93:0.00013281976 94:0 95:0.0098286625 96:0.005047151 97:0.0025235755 98:0.051135609 99:0.0034533139 100:0 101:0 102:0 103:0 104:0 105:0 106:0 107:0 108:0 109:0 110:0 111:0 112:0 113:0 114:0.028423429 115:0.00013281976 116:0.025235755 117:0.010758401 118:0.002789215 119:0.00026563953 120:0.0066409882 121:0 122:0.00079691858 123:0 124:0 125:0 126:0.026298313 127:0 128:0 129:0.053127905 130:0.088192323 131:0.092973835 132:0.0061097091 133:0.018594767 134:0.0013281976 135:0.00039845929 136:0.0015938372 137:0 138:0.0114225 139:0.0049143313 140:0.021782441 141:0.0092973835 142:0 143:0.0049143313 144:0 145:0.011688139 146:0.0013281976 147:0 148:0.014875814 149:0.0091645637 150:0 151:0.00066409882 152:0 153:0 154:0 155:0 156:0 157:0 
1 0 1:0.02170767 2:0.014954173 3:0.004341534 4:0.0033767487 5:0 6:0.001447178 7:0.00024119633 8:0 9:0.0091654607 10:0.060299083 11:0.0033767487 12:0 13:0 14:0.086589484 15:0.017366136 16:0 17:0.000723589 18:0 19:0 20:0 21:0 22:0 23:0 24:0 25:0 26:0 27:0.065846599 28:0.013748191 29:0.020742885 30:0.012783406 31:0 32:0.002170767 33:0 34:0 35:0 36:0 37:0 38:0 39:0 40:0 41:0 42:0 43:0 44:0 45:0 46:0 47:0 48:0 49:0 50:0 51:0 52:0 53:0 54:0 55:0 56:0 57:0.00024119633 58:0 59:0.013989387 60:0.003617945 61:0.00048239267 62:0 63:0.009406657 64:0 65:0.00024119633 66:0 67:0 68:0 69:0 70:0 71:0 72:0 73:0.002170767 74:0 75:0.006512301 76:0.033767487 77:0.0262904 78:0.0033767487 79:0.0096478534 80:0 81:0.00024119633 82:0.00024119633 83:0 84:0 85:0 86:0.000723589 87:0.0012059817 88:0 89:0 90:0 91:0.0074770863 92:0.0033767487 93:0 94:0 95:0.0045827303 96:0.0067534973 97:0.0031355523 98:0.048239267 99:0.0024119633 100:0 101:0 102:0 103:0 104:0 105:0 106:0 107:0 108:0 109:0 110:0 111:0 112:0 113:0 114:0.027978775 115:0 116:0.030149542 117:0.010130246 118:0.002894356 119:0 120:0.0026531597 121:0 122:0.0012059817 123:0 124:0 125:0 126:0.022431259 127:0 128:0 129:0.075976845 130:0.12132176 131:0.074529667 132:0.011095031 133:0.0098890497 134:0.000723589 135:0 136:0.00096478534 137:0 138:0.013506995 139:0.0053063193 140:0.023396044 141:0.0060299083 142:0 143:0.0074770863 144:0 145:0.005788712 146:0.0012059817 147:0 148:0.007959479 149:0.010130246 150:0 151:0.00024119633 152:0 153:0 154:0 155:0 156:0 157:0 
1 0 1:0.024054983 2:0.013745704 3:0.0034364261 4:0.0068728522 5:0 6:0 7:0 8:0 9:0 10:0.041237113 11:0.013745704 12:0 13:0 14:0.096219931 15:0.0068728522 16:0 17:0 18:0 19:0 20:0 21:0 22:0 23:0 24:0 25:0 26:0 27:0.068728522 28:0.020618557 29:0.017182131 30:0 31:0 32:0 33:0 34:0 35:0 36:0 37:0 38:0 39:0 40:0 41:0 42:0 43:0 44:0 45:0 46:0 47:0 48:0 49:0 50:0 51:0 52:0 53:0 54:0 55:0 56:0 57:0 58:0 59:0.017182131 60:0.0068728522 61:0 62:0 63:0.013745704 64:0 65:0 66:0 67:0 68:0 69:0 70:0 71:0 72:0 73:0 74:0 75:0.013745704 76:0.017182131 77:0.037800687 78:0.0034364261 79:0.024054983 80:0 81:0 82:0 83:0 84:0 85:0 86:0 87:0 88:0 89:0 90:0 91:0.0034364261 92:0 93:0 94:0 95:0 96:0 97:0.010309278 98:0.075601375 99:0.017182131 100:0 101:0 102:0 103:0 104:0 105:0 106:0 107:0 108:0 109:0 110:0 111:0 112:0 113:0 114:0.024054983 115:0 116:0.010309278 117:0.0068728522 118:0 119:0 120:0 121:0 122:0.0034364261 123:0 124:0 125:0 126:0.030927835 127:0 128:0 129:0.058419244 130:0.12714777 131:0.075601375 132:0.0068728522 133:0.010309278 134:0 135:0 136:0 137:0 138:0.0068728522 139:0.0068728522 140:0.034364261 141:0 142:0 143:0.0068728522 144:0 145:0.0034364261 146:0 147:0 148:0.027491409 149:0.0068728522 150:0 151:0 152:0 153:0 154:0 155:0 156:0 157:0 
1 0 1:0.024824356 2:0.014519906 3:0.0056206089 4:0.0018735363 5:0 6:0.0028103044 7:0.0042154567 8:0.00093676815 9:0.011709602 10:0.055737705 11:0.00046838407 12:0 13:0 14:0.077283372 15:0.011709602 16:0 17:0.0018735363 18:0 19:0 20:0 21:0 22:0 23:0 24:0 25:0 26:0 27:0.045433255 28:0.016393443 29:0.018266979 30:0.0056206089 31:0 32:0.0028103044 33:0 34:0 35:0.0014051522 36:0 37:0 38:0 39:0 40:0 41:0 42:0 43:0 44:0 45:0 46:0 47:0 48:0 49:0 50:0 51:0 52:0 53:0 54:0 55:0 56:0 57:0.0014051522 58:0 59:0.022014052 60:0.0074941452 61:0.00046838407 62:0 63:0.0088992974 64:0 65:0 66:0 67:0 68:0 69:0 70:0 71:0 72:0 73:0.0014051522 74:0 75:0.0079625293 76:0.033723653 77:0.021077283 78:0.0046838407 79:0.0051522248 80:0 81:0 82:0 83:0 84:0 85:0 86:0.00046838407 87:0.0014051522 88:0 89:0 90:0 91:0.0032786885 92:0.0028103044 93:0 94:0 95:0.0023419204 96:0.0070257611 97:0.0070257611 98:0.045901639 99:0.00093676815 100:0 101:0 102:0 103:0 104:0 105:0 106:0 107:0 108:0 109:0 110:0 111:0 112:0 113:0 114:0.034660422 115:0.00046838407 116:0.023887588 117:0.013114754 118:0.0056206089 119:0 120:0.00093676815 121:0 122:0.00093676815 123:0 124:0 125:0 126:0.02529274 127:0 128:0 129:0.096955504 130:0.12974239 131:0.056206089 132:0.018735363 133:0.01498829 134:0.00046838407 135:0 136:0.00093676815 137:0 138:0.01030445 139:0.0088992974 140:0.021545667 141:0.0098360656 142:0 143:0.0070257611 144:0 145:0.0098360656 146:0.0014051522 147:0 148:0.0098360656 149:0.0088992974 150:0 151:0.00046838407 152:0 153:0 154:0 155:0 156:0 157:0 
1 0 1:0.015990862 2:0.023700742 3:0.0042832667 4:0.0029982867 5:0 6:0.00128498 7:0.00042832667 8:0.00057110223 9:0.010708167 10:0.053398058 11:0.00057110223 12:0 13:0 14:0.05396916 15:0.012421473 16:0 17:0.0015705311 18:0 19:0 20:0 21:0 22:0 23:0 24:0 25:0 26:0 27:0.039977156 28:0.0067104512 29:0.017418618 30:0.014277556 31:0 32:0.0052826956 33:0 34:0 35:0 36:0 37:0.00028555111 38:0 39:0 40:0 41:0 42:0 43:0 44:0 45:0 46:0 47:0 48:0 49:0 50:0 51:0 52:0 53:0 54:0 55:0 56:0.00042832667 57:0.00028555111 58:0 59:0.0385494 60:0.0057110223 61:0.00128498 62:0 63:0.0092804112 64:0 65:0.00014277556 66:0 67:0.00028555111 68:0 69:0 70:0 71:0 72:0 73:0.00085665334 74:0 75:0.0081382067 76:0.017133067 77:0.022844089 78:0.0037121645 79:0.0044260423 80:0 81:0 82:0 83:0 84:0.00028555111 85:0 86:0.00028555111 87:0.00014277556 88:0 89:0 90:0 91:0.0011422045 92:0.0022844089 93:0 94:0 95:0.0022844089 96:0.0052826956 97:0.0064249001 98:0.05396916 99:0.0017133067 100:0 101:0 102:0 103:0 104:0 105:0 106:0 107:0 108:0 109:0 110:0 111:0 112:0 113:0 114:0.014991433 115:0 116:0.015276985 117:0.0128498 118:0.0042832667 119:0 120:0.00256996 121:0 122:0.00028555111 123:0 124:0 125:0 126:0.016990291 127:0.00014277556 128:0 129:0.12806967 130:0.13292404 131:0.040262707 132:0.024557396 133:0.018418047 134:0.0027127356 135:0.00014277556 136:0 137:0 138:0.01156482 139:0.0057110223 140:0.038834951 141:0.0085665334 142:0 143:0.013420902 144:0 145:0.014277556 146:0.0017133067 147:0 148:0.02055968 149:0.01670474 150:0 151:0.0014277556 152:0 153:0 154:0 155:0 156:0 157:0 
1 0 1:0 2:0 3:0 4:0 5:0 6:0 7:0 8:0 9:0 10:0 11:0 12:0 13:0 14:0 15:0 16:0 17:0 18:0 19:0 20:0 21:0 22:0 23:0 24:0 25:0 26:0 27:0 28:0 29:0 30:0 31:0 32:0 33:0 34:0 35:0 36:0 37:0 38:0 39:0 40:0 41:0 42:0 43:0 44:0 45:0 46:0 47:0 48:0 49:0 50:0 51:0 52:0 53:0 54:0 55:0 56:0 57:0 58:0 59:0 60:0 61:0 62:0 63:0 64:0 65:0 66:0 67:0 68:0 69:0 70:0 71:0 72:0 73:0 74:0 75:0 76:0 77:0 78:0 79:0 80:0 81:0 82:0 83:0 84:0 85:0 86:0 87:0 88:0 89:0 90:0 91:0 92:0 93:0 94:0 95:0 96:0 97:0 98:0 99:0 100:0 101:0 102:0 103:0 104:0 105:0 106:0 107:0 108:0 109:0 110:0 111:0 112:0 113:0 114:0 115:0 116:0 117:0 118:0 119:0 120:0 121:0 122:0 123:0 124:0 125:0 126:0 127:0 128:0 129:1 130:0 131:0 132:0 133:0 134:0 135:0 136:0 137:0 138:0 139:0 140:0 141:0 142:0 143:0 144:0 145:0 146:0 147:0 148:0 149:0 150:0 151:0 152:0 153:0 154:0 155:0 156:0 157:0 
1 0 1:0.022570373 2:0.016736721 3:0.0030824099 4:0.0036683225 5:2.5474462e-05 6:0.0015794166 7:0.00045854031 8:0.00025474462 9:0.011769201 10:0.065392944 11:0.0027512419 12:2.5474462e-05 13:0 14:0.090052223 15:0.011055916 16:0 17:0.0014520443 18:0 19:7.6423386e-05 20:0 21:0 22:0 23:0 24:0 25:0 26:0 27:0.051178194 28:0.01587059 29:0.021729716 30:0.012278691 31:0 32:0.0050948924 33:0 34:0 35:0.00030569354 36:0 37:2.5474462e-05 38:0 39:0 40:0 41:0 42:0 43:0 44:0 45:0 46:0 47:0 48:0 49:0 50:0 51:0 52:0 53:0 54:0 55:0 56:0.00017832123 57:0.00020379569 58:0 59:0.014545918 60:0.003974016 61:0.00073875939 62:0 63:0.015386575 64:0 65:0.00035664247 66:0 67:7.6423386e-05 68:0 69:0 70:0 71:0 72:0 73:0.0018086868 74:0 75:0.012890078 76:0.024964973 77:0.025652783 78:0.00081518278 79:0.0054260604 80:2.5474462e-05 81:0 82:2.5474462e-05 83:0 84:0.00010189785 85:0 86:0.0020634314 87:0.00012737231 88:0 89:7.6423386e-05 90:0 91:0.0068016813 92:0.0015284677 93:2.5474462e-05 94:0 95:0.0081518278 96:0.0046108776 97:0.0052732136 98:0.049828047 99:0.0031333588 100:0 101:0 102:0 103:0 104:0 105:0 106:0 107:0 108:0 109:0 110:0 111:0 112:0 113:0 114:0.025448987 115:0.00022927016 116:0.020226723 117:0.016685773 118:0.0029295631 119:0 120:0.0013501465 121:0 122:0.00081518278 123:0 124:0 125:0 126:0.019258693 127:0.00040759139 128:0 129:0.091020252 130:0.11297924 131:0.060247102 132:0.013603363 133:0.015997962 134:0.00076423386 135:0.00010189785 136:0.00078970832 137:2.5474462e-05 138:0.01398548 139:0.0069290536 140:0.021118329 141:0.0066233601 142:0 143:0.011514457 144:5.0948924e-05 145:0.0099095657 146:0.00091708063 147:0 148:0.010291683 149:0.0090179595 150:0 151:0.0005349637 152:0 153:0 154:0 155:0 156:0 157:0 
1 0 1:0.012367491 2:0.011189635 3:0.0023557126 4:0.0029446408 5:0 6:0.0035335689 7:0 8:0.0017667845 9:0.0082449941 10:0.10954064 11:0.011189635 12:0.00058892815 13:0 14:0.037691402 15:0.0082449941 16:0 17:0.0035335689 18:0 19:0.0011778563 20:0 21:0 22:0 23:0 24:0 25:0 26:0 27:0.020612485 28:0.014134276 29:0.016489988 30:0.012956419 31:0 32:0.0041224971 33:0 34:0 35:0.00058892815 36:0 37:0.00058892815 38:0 39:0 40:0 41:0 42:0 43:0 44:0 45:0 46:0.0011778563 47:0.00058892815 48:0 49:0.00058892815 50:0 51:0 52:0 53:0 54:0 55:0 56:0.00058892815 57:0.00058892815 58:0 59:0.020612485 60:0.007656066 61:0.0011778563 62:0 63:0.015312132 64:0 65:0.0017667845 66:0 67:0 68:0 69:0 70:0 71:0 72:0 73:0.0053003534 74:0 75:0.0035335689 76:0.03180212 77:0.022968198 78:0.016489988 79:0.0058892815 80:0.00058892815 81:0 82:0 83:0 84:0.00058892815 85:0 86:0.0017667845 87:0.014134276 88:0 89:0.0011778563 90:0 91:0.0029446408 92:0.0047114252 93:0 94:0 95:0.0064782097 96:0.011189635 97:0.0070671378 98:0.04770318 99:0.0047114252 100:0.00058892815 101:0 102:0 103:0 104:0 105:0 106:0 107:0 108:0 109:0 110:0 111:0 112:0 113:0 114:0.02532391 115:0.0011778563 116:0.011778563 117:0.0064782097 118:0.00058892815 119:0 120:0 121:0 122:0 123:0 124:0 125:0 126:0.018256773 127:0.0011778563 128:0.00058892815 129:0.086572438 130:0.106596 131:0.051236749 132:0.029446408 133:0.02237927 134:0.0017667845 135:0 136:0.00058892815 137:0.0029446408 138:0.011778563 139:0.0041224971 140:0.047114252 141:0.0035335689 142:0 143:0.0088339223 144:0.00058892815 145:0.015312132 146:0 147:0 148:0.0082449941 149:0.0088339223 150:0 151:0.0011778563 152:0 153:0 154:0 155:0 156:0 157:0 
1 0 1:0.016388276 2:0.01134573 3:0.0025212732 4:0.0037819099 5:0 6:0.0078789789 7:0.0066183423 8:0.00094547747 9:0.015757958 10:0.091396155 11:0.005988024 12:0 13:0 14:0.039394894 15:0.01859439 16:0 17:0.0037819099 18:0 19:0.0015757958 20:0 21:0 22:0 23:0 24:0 25:0 26:0 27:0.021745982 28:0.008194138 29:0.01103057 30:0.0078789789 31:0 32:0.0053577056 33:0 34:0 35:0.00031515916 36:0 37:0 38:0 39:0 40:0 41:0 42:0 43:0 44:0 45:0.00063031831 46:0.00063031831 47:0.00031515916 48:0 49:0.00031515916 50:0 51:0 52:0 53:0 54:0 55:0 56:0.00063031831 57:0.00031515916 58:0 59:0.030255279 60:0.012921525 61:0.0012606366 62:0 63:0.01481248 64:0 65:0.0022061141 66:0 67:0.00063031831 68:0 69:0 70:0 71:0 72:0 73:0.0012606366 74:0 75:0.020485345 76:0.016703435 77:0.019224708 78:0.0053577056 79:0.0025212732 80:0 81:0.00063031831 82:0 83:0 84:0 85:0 86:0.0028364324 87:0.005988024 88:0 89:0 90:0 91:0.0034667507 92:0.0028364324 93:0.00031515916 94:0 95:0.0053577056 96:0.0022061141 97:0.0094547747 98:0.04097069 99:0.0025212732 100:0 101:0 102:0 103:0 104:0 105:0 106:0 107:0 108:0 109:0 110:0 111:0 112:0 113:0 114:0.0223763 115:0.00063031831 116:0.0075638197 117:0.0066183423 118:0.0015757958 119:0 120:0.00031515916 121:0 122:0.00031515916 123:0 124:0 125:0 126:0.020170186 127:0.00063031831 128:0 129:0.10936023 130:0.13362748 131:0.042546486 132:0.032461393 133:0.018279231 134:0.0031515916 135:0.00063031831 136:0 137:0.0028364324 138:0.0088244564 139:0.0091396155 140:0.028679483 141:0.0072486606 142:0 143:0.0072486606 144:0.00094547747 145:0.012291207 146:0.00094547747 147:0 148:0.017018594 149:0.012921525 150:0 151:0.004097069 152:0 153:0 154:0 155:0 156:0 157:0 
1 0 1:0.017502524 2:0.017502524 3:0.0053853921 4:0.0023561091 5:0 6:0.0050488051 7:0.001346348 8:0.002019522 9:0.0090878492 10:0.099293167 11:0.0047122181 12:0 13:0.002019522 14:0.031975766 15:0.0057219791 16:0 17:0.017839111 18:0 19:0.0074049142 20:0 21:0 22:0 23:0 24:0 25:0 26:0 27:0.023224504 28:0.014473241 29:0.02019522 30:0.018848872 31:0 32:0.0023561091 33:0 34:0 35:0.001346348 36:0 37:0 38:0 39:0 40:0 41:0 42:0 43:0 44:0 45:0.00033658701 46:0.00067317402 47:0.00033658701 48:0 49:0.00033658701 50:0 51:0 52:0 53:0 54:0 55:0 56:0.00033658701 57:0 58:0 59:0.024907439 60:0.0084146752 61:0.00067317402 62:0 63:0.0063951531 64:0 65:0.0057219791 66:0 67:0.0074049142 68:0 69:0 70:0 71:0 72:0 73:0.00033658701 74:0 75:0.010770784 76:0.028273309 77:0.018175698 78:0.0060585661 79:0.0043756311 80:0 81:0.00033658701 82:0 83:0 84:0.00033658701 85:0 86:0.0023561091 87:0.001009761 88:0 89:0 90:0 91:0.002019522 92:0.0057219791 93:0 94:0 95:0.001682935 96:0.0023561091 97:0.0047122181 98:0.043419724 99:0.0023561091 100:0 101:0 102:0 103:0 104:0 105:0 106:0 107:0 108:0 109:0 110:0 111:0 112:0 113:0 114:0.017165937 115:0.001346348 116:0.015146415 117:0.0067317402 118:0.001009761 119:0 120:0.001009761 121:0 122:0.001346348 123:0 124:0 125:0 126:0.024234265 127:0.001346348 128:0 129:0.097273645 130:0.13160552 131:0.038034332 132:0.037024571 133:0.017839111 134:0.0023561091 135:0 136:0 137:0.0026926961 138:0.016492763 139:0.0063951531 140:0.030292831 141:0.0030292831 142:0 143:0.011780545 144:0.00033658701 145:0.012790306 146:0.00067317402 147:0 148:0.0067317402 149:0.0053853921 150:0 151:0.010434197 152:0 153:0 154:0 155:0 156:0 157:0 
1 0 1:0.023955774 2:0.015356265 3:0.0082923833 4:0.0033783784 5:0 6:0.0024570025 7:0.0021498771 8:0.00061425061 9:0.0089066339 10:0.097358722 11:0.0036855037 12:0 13:0 14:0.057125307 15:0.018427518 16:0 17:0.0030712531 18:0 19:0.0027641278 20:0 21:0 22:0 23:0 24:0 25:0 26:0 27:0.016891892 28:0.0089066339 29:0.012899263 30:0.010749386 31:0 32:0.0055282555 33:0.00030712531 34:0 35:0.00061425061 36:0 37:0.00030712531 38:0 39:0 40:0 41:0 42:0 43:0 44:0 45:0 46:0.0015356265 47:0.0012285012 48:0 49:0 50:0 51:0 52:0 53:0 54:0 55:0 56:0 57:0.00030712531 58:0 59:0.031019656 60:0.013513514 61:0.00030712531 62:0 63:0.013206388 64:0 65:0.00030712531 66:0 67:0.0012285012 68:0 69:0 70:0 71:0 72:0 73:0.00030712531 74:0.00030712531 75:0.011363636 76:0.026105651 77:0.021191646 78:0.010749386 79:0.0042997543 80:0 81:0 82:0 83:0 84:0 85:0.00030712531 86:0.003992629 87:0.0052211302 88:0 89:0.00030712531 90:0 91:0.0027641278 92:0.0042997543 93:0 94:0 95:0.003992629 96:0.0021498771 97:0.0073710074 98:0.057125307 99:0.0030712531 100:0 101:0 102:0 103:0 104:0 105:0 106:0 107:0 108:0 109:0 110:0 111:0 112:0 113:0 114:0.019348894 115:0.0018427518 116:0.012285012 117:0.0064496314 118:0.00061425061 119:0 120:0 121:0 122:0.00030712531 123:0 124:0 125:0 126:0.014742015 127:0.00030712531 128:0 129:0.092751843 130:0.10841523 131:0.054668305 132:0.03531941 133:0.019963145 134:0.0036855037 135:0.0012285012 136:0 137:0.0033783784 138:0.011056511 139:0.0055282555 140:0.026105651 141:0.0092137592 142:0 143:0.0064496314 144:0.00030712531 145:0.018120393 146:0.00030712531 147:0 148:0.0055282555 149:0.0098280098 150:0 151:0.00092137592 152:0 153:0 154:0 155:0 156:0 157:0 
1 0 1:0.018284107 2:0.0070323488 3:0.0042194093 4:0.0014064698 5:0 6:0.0014064698 7:0.005625879 8:0.0014064698 9:0.014064698 10:0.088607595 11:0.011251758 12:0 13:0 14:0.073136428 15:0.012658228 16:0 17:0.0014064698 18:0 19:0 20:0 21:0 22:0 23:0 24:0 25:0 26:0 27:0.023909986 28:0.012658228 29:0.012658228 30:0.0084388186 31:0 32:0.0014064698 33:0 34:0 35:0 36:0 37:0 38:0 39:0 40:0 41:0 42:0 43:0 44:0 45:0 46:0.0028129395 47:0 48:0 49:0 50:0 51:0 52:0 53:0 54:0 55:0 56:0 57:0 58:0 59:0.021097046 60:0.012658228 61:0 62:0 63:0.011251758 64:0 65:0 66:0 67:0 68:0 69:0 70:0 71:0 72:0 73:0 74:0 75:0.016877637 76:0.018284107 77:0.016877637 78:0.005625879 79:0.0028129395 80:0 81:0 82:0 83:0 84:0 85:0 86:0.005625879 87:0.0028129395 88:0 89:0 90:0 91:0.0070323488 92:0.0028129395 93:0 94:0 95:0.0014064698 96:0 97:0.0028129395 98:0.078762307 99:0.0070323488 100:0 101:0 102:0 103:0 104:0 105:0 106:0 107:0 108:0 109:0 110:0 111:0 112:0 113:0 114:0.014064698 115:0.0014064698 116:0.018284107 117:0 118:0.0042194093 119:0 120:0 121:0 122:0 123:0 124:0 125:0 126:0.012658228 127:0 128:0 129:0.12939522 130:0.12376934 131:0.045007032 132:0.018284107 133:0.018284107 134:0.0014064698 135:0 136:0.0028129395 137:0 138:0.016877637 139:0.0014064698 140:0.028129395 141:0.0070323488 142:0 143:0.0098452883 144:0 145:0.014064698 146:0 147:0 148:0.012658228 149:0.0042194093 150:0 151:0 152:0 153:0 154:0 155:0 156:0 157:0 
1 0 1:0.0083945435 2:0.016789087 3:0.0041972718 4:0.0031479538 5:0 6:0.0020986359 7:0.0020986359 8:0 9:0.010493179 10:0.075550892 11:0.0062959077 12:0 13:0 14:0.070304302 15:0.024134313 16:0 17:0.0041972718 18:0 19:0.0083945435 20:0 21:0 22:0 23:0 24:0 25:0 26:0 27:0.050367261 28:0.0094438615 29:0.017838405 30:0.0073452256 31:0 32:0.0031479538 33:0 34:0 35:0 36:0 37:0 38:0 39:0 40:0 41:0 42:0 43:0 44:0 45:0 46:0 47:0 48:0 49:0.0010493179 50:0 51:0 52:0 53:0 54:0 55:0 56:0 57:0 58:0 59:0.019937041 60:0.0094438615 61:0 62:0 63:0.012591815 64:0 65:0.0010493179 66:0 67:0.0010493179 68:0 69:0 70:0 71:0 72:0 73:0 74:0 75:0.018887723 76:0.018887723 77:0.012591815 78:0.0062959077 79:0.0010493179 80:0 81:0 82:0 83:0 84:0 85:0 86:0 87:0.0010493179 88:0 89:0 90:0 91:0.0020986359 92:0.0031479538 93:0 94:0 95:0.0020986359 96:0.0020986359 97:0.0062959077 98:0.044071354 99:0.0031479538 100:0 101:0 102:0 103:0 104:0 105:0 106:0 107:0 108:0 109:0 110:0 111:0 112:0 113:0 114:0.036726128 115:0 116:0.022035677 117:0.0031479538 118:0.0020986359 119:0 120:0 121:0 122:0 123:0 124:0 125:0 126:0.015739769 127:0 128:0 129:0.10912907 130:0.11752361 131:0.050367261 132:0.043022036 133:0.014690451 134:0.0031479538 135:0 136:0 137:0.0031479538 138:0.0094438615 139:0.0041972718 140:0.026232949 141:0.0094438615 142:0 143:0.0062959077 144:0 145:0.0073452256 146:0 147:0 148:0.014690451 149:0.0062959077 150:0 151:0.0041972718 152:0 153:0 154:0 155:0 156:0 157:0 
1 0 1:0.017147311 2:0.014029618 3:0.0054559626 4:0.0015588465 5:0 6:0.0031176929 7:0.0015588465 8:0.0015588465 9:0.012470772 10:0.095089634 11:0.010911925 12:0 13:0 14:0.030397506 15:0.0054559626 16:0 17:0.029618083 18:0 19:0.0077942323 20:0 21:0 22:0 23:0 24:0 25:0 26:0 27:0.027279813 28:0.0093530787 29:0.020265004 30:0.014809041 31:0 32:0 33:0 34:0 35:0.00077942323 36:0 37:0.0015588465 38:0 39:0 40:0 41:0 42:0 43:0 44:0 45:0 46:0 47:0.0015588465 48:0 49:0 50:0 51:0 52:0 53:0 54:0 55:0 56:0 57:0.00077942323 58:0 59:0.028838659 60:0.012470772 61:0 62:0 63:0.017147311 64:0 65:0.0031176929 66:0 67:0.0054559626 68:0 69:0 70:0 71:0 72:0 73:0 74:0 75:0.017147311 76:0.022603274 77:0.018706157 78:0.0015588465 79:0.0015588465 80:0 81:0 82:0 83:0 84:0 85:0 86:0 87:0 88:0 89:0 90:0 91:0.0015588465 92:0.00077942323 93:0 94:0 95:0.0015588465 96:0.0038971161 97:0.0054559626 98:0.041309431 99:0.0015588465 100:0 101:0 102:0 103:0 104:0 105:0 106:0 107:0 108:0 109:0 110:0 111:0 112:0 113:0 114:0.014029618 115:0.0038971161 116:0.007014809 117:0.0054559626 118:0.0031176929 119:0 120:0.0015588465 121:0 122:0 123:0 124:0 125:0 126:0.010911925 127:0 128:0 129:0.11223694 130:0.13717849 131:0.043647701 132:0.032735776 133:0.023382697 134:0.0054559626 135:0 136:0 137:0.0015588465 138:0.015588465 139:0.011691348 140:0.033515199 141:0.0062353858 142:0 143:0.0085736555 144:0 145:0.010132502 146:0 147:0 148:0.0031176929 149:0.0077942323 150:0 151:0.0038971161 152:0 153:0 154:0 155:0 156:0 157:0 
1 0 1:0.023509656 2:0.021830395 3:0.0025188917 4:0.0050377834 5:0 6:0.0033585223 7:0 8:0.0016792611 9:0.010075567 10:0.093198992 11:0.0025188917 12:0 13:0 14:0.031066331 15:0.011754828 16:0 17:0.020151134 18:0 19:0.01427372 20:0 21:0 22:0 23:0 24:0 25:0 26:0 27:0.01511335 28:0.0075566751 29:0.019311503 30:0.019311503 31:0 32:0.0041981528 33:0 34:0 35:0.0025188917 36:0 37:0.00083963056 38:0 39:0 40:0 41:0 42:0 43:0 44:0 45:0 46:0.00083963056 47:0 48:0 49:0 50:0 51:0 52:0 53:0 54:0 55:0 56:0.00083963056 57:0 58:0 59:0.024349286 60:0.010075567 61:0 62:0 63:0.015952981 64:0 65:0.0033585223 66:0 67:0.0033585223 68:0 69:0 70:0 71:0 72:0 73:0 74:0 75:0.013434089 76:0.021830395 77:0.023509656 78:0.0067170445 79:0.0050377834 80:0 81:0 82:0 83:0 84:0 85:0 86:0.0016792611 87:0.00083963056 88:0 89:0 90:0 91:0.0033585223 92:0.0067170445 93:0 94:0 95:0.0033585223 96:0.0025188917 97:0.0050377834 98:0.049538203 99:0.0058774139 100:0 101:0 102:0 103:0 104:0 105:0 106:0 107:0 108:0 109:0 110:0 111:0 112:0 113:0 114:0.01427372 115:0.0041981528 116:0.011754828 117:0.0067170445 118:0 119:0 120:0 121:0 122:0.0033585223 123:0 124:0 125:0 126:0.017632242 127:0.00083963056 128:0 129:0.10495382 130:0.13602015 131:0.037783375 132:0.02938707 133:0.017632242 134:0.0016792611 135:0.00083963056 136:0 137:0.0016792611 138:0.0075566751 139:0.010075567 140:0.036104114 141:0.0025188917 142:0 143:0.0058774139 144:0 145:0.012594458 146:0 147:0 148:0.0058774139 149:0.0075566751 150:0 151:0.0050377834 152:0 153:0 154:0 155:0 156:0 157:0 
1 0 1:0.016840417 2:0.013231756 3:0.0032076985 4:0.0032076985 5:0 6:0.0068163593 7:0.0056134723 8:0.0028067362 9:0.012028869 10:0.089414595 11:0.0084202085 12:0 13:0 14:0.062951083 15:0.016038492 16:0 17:0.011226945 18:0 19:0.0016038492 20:0 21:0 22:0 23:0 24:0 25:0 26:0 27:0.019246191 28:0.013231756 29:0.018444266 30:0.01042502 31:0 32:0.0040096231 33:0 34:0 35:0.00080192462 36:0 37:0.00080192462 38:0 39:0 40:0 41:0 42:0 43:0 44:0 45:0 46:0.0020048115 47:0 48:0 49:0 50:0 51:0 52:0 53:0 54:0 55:0 56:0.00040096231 57:0 58:0 59:0.016038492 60:0.0084202085 61:0.0020048115 62:0 63:0.019246191 64:0 65:0.0020048115 66:0 67:0.00040096231 68:0 69:0 70:0 71:0 72:0 73:0.0024057739 74:0.00080192462 75:0.010825982 76:0.018845229 77:0.021651965 78:0.0020048115 79:0.00521251 80:0 81:0.00040096231 82:0 83:0 84:0.00080192462 85:0 86:0 87:0.00080192462 88:0 89:0 90:0 91:0.0032076985 92:0.0036086608 93:0 94:0 95:0.0024057739 96:0.0044105854 97:0.0048115477 98:0.047714515 99:0.0032076985 100:0 101:0 102:0 103:0 104:0 105:0 106:0 107:0 108:0 109:0 110:0 111:0 112:0 113:0 114:0.018444266 115:0.00521251 116:0.013231756 117:0.00521251 118:0.0020048115 119:0 120:0.0012028869 121:0 122:0.0016038492 123:0 124:0 125:0 126:0.012429832 127:0 128:0 129:0.11467522 130:0.13071371 131:0.053327987 132:0.02085004 133:0.017642342 134:0.0048115477 135:0.00040096231 136:0 137:0.0040096231 138:0.0096230954 139:0.0048115477 140:0.024057739 141:0.0084202085 142:0 143:0.0080192462 144:0 145:0.017241379 146:0.0012028869 147:0 148:0.00521251 149:0.0056134723 150:0 151:0.0060144346 152:0 153:0 154:0 155:0 156:0 157:0 
1 0 1:0.01750547 2:0.014792123 3:0.0036761488 4:0.0036761488 5:0 6:0.0025382932 7:0.0015754923 8:0.0014004376 9:0.012866521 10:0.095667396 11:0.0089277899 12:0.00043763676 13:0 14:0.063544858 15:0.013829322 16:0 17:0.0021006565 18:0 19:0.00043763676 20:0 21:0 22:0 23:0 24:0 25:0 26:0 27:0.022932166 28:0.012603939 29:0.016980306 30:0.0060393873 31:0 32:0.0055142232 33:0 34:0 35:0.0001750547 36:0 37:0 38:0 39:0 40:0 41:0 42:0 43:0 44:0 45:0.00052516411 46:0.0021881838 47:0.0018380744 48:0 49:0.0019256018 50:0 51:0 52:0 53:0 54:0 55:0 56:0.00061269147 57:0 58:0 59:0.021006565 60:0.0102407 61:0.0027133479 62:0 63:0.012253829 64:0 65:0.00043763676 66:0 67:0.00052516411 68:0 69:0 70:0 71:0 72:0 73:0.0041137856 74:0 75:0.014704595 76:0.022757112 77:0.02214442 78:0.012778993 79:0.0057768053 80:0.0001750547 81:0 82:0.00043763676 83:0 84:0.00035010941 85:0 86:0.0016630197 87:0.0030634573 88:0 89:0.00035010941 90:0 91:0.0038512035 92:0.0028884026 93:0 94:0 95:0.0082275711 96:0.006214442 97:0.0070897155 98:0.054354486 99:0.0027133479 100:0 101:0 102:0 103:0 104:0 105:0 106:0 107:0 108:0 109:0 110:0 111:0 112:0 113:8.7527352e-05 114:0.024682713 115:0.00052516411 116:0.017067834 117:0.0084901532 118:0.0019256018 119:0 120:0.00078774617 121:0 122:0.00043763676 123:0 124:0 125:0 126:0.018468271 127:0.00043763676 128:0 129:0.095842451 130:0.1004814 131:0.04595186 132:0.020218818 133:0.019256018 134:0.0022757112 135:0 136:0.00043763676 137:0.0057768053 138:0.010153173 139:0.0053391685 140:0.031334792 141:0.012166302 142:0 143:0.011028446 144:0.00026258206 145:0.013391685 146:0.00078774617 147:0 148:0.0086652079 149:0.007702407 150:0 151:0.00087527352 152:0 153:0 154:0 155:0 156:0 157:0 
1 0 1:0.02037037 2:0.014814815 3:0.0064814815 4:0.0055555556 5:0 6:0.0018518519 7:0.00092592593 8:0.0027777778 9:0.010185185 10:0.11111111 11:0.0055555556 12:0 13:0 14:0.055555556 15:0.012037037 16:0 17:0.0055555556 18:0 19:0.0027777778 20:0 21:0 22:0 23:0 24:0 25:0 26:0 27:0.031481481 28:0.0092592593 29:0.02037037 30:0.0092592593 31:0 32:0.0018518519 33:0 34:0 35:0.00092592593 36:0 37:0 38:0 39:0 40:0 41:0 42:0 43:0 44:0 45:0 46:0.0027777778 47:0 48:0 49:0 50:0 51:0 52:0 53:0 54:0 55:0 56:0 57:0 58:0 59:0.021296296 60:0.014814815 61:0 62:0 63:0.012037037 64:0 65:0.0018518519 66:0 67:0.0018518519 68:0 69:0 70:0 71:0 72:0 73:0 74:0 75:0.012962963 76:0.015740741 77:0.030555556 78:0.015740741 79:0.0046296296 80:0 81:0 82:0 83:0 84:0 85:0 86:0 87:0.0018518519 88:0 89:0 90:0 91:0.0037037037 92:0.00092592593 93:0 94:0 95:0.0046296296 96:0.0018518519 97:0.0037037037 98:0.061111111 99:0.0027777778 100:0 101:0 102:0 103:0 104:0 105:0 106:0 107:0 108:0 109:0 110:0 111:0 112:0 113:0 114:0.024074074 115:0.00092592593 116:0.0083333333 117:0.0018518519 118:0.00092592593 119:0 120:0 121:0 122:0 123:0 124:0 125:0 126:0.012962963 127:0.00092592593 128:0 129:0.10185185 130:0.094444444 131:0.050925926 132:0.038888889 133:0.015740741 134:0.0083333333 135:0.00092592593 136:0 137:0.0083333333 138:0.011111111 139:0.0046296296 140:0.024074074 141:0.0064814815 142:0 143:0.0046296296 144:0 145:0.016666667 146:0.0046296296 147:0 148:0.0027777778 149:0.0055555556 150:0 151:0.0064814815 152:0 153:0 154:0 155:0 156:0 157:0 
1 0 1:0.017787954 2:0.014617823 3:0.0042268404 4:0.0038746037 5:0 6:0.0014089468 7:0.0022895386 8:0.00052835505 9:0.0093342726 10:0.085593519 11:0.0012328285 12:0.00017611835 13:0 14:0.049665375 15:0.0098626277 16:0 17:0.0012328285 18:0 19:0 20:0 21:0 22:0 23:0 24:0 25:0 26:0 27:0.033990842 28:0.018492427 29:0.017435717 30:0.006516379 31:0 32:0.0066924974 33:0 34:0 35:0.0003522367 36:0 37:0 38:0 39:0 40:0 41:0 42:0 43:0 44:0 45:0 46:0 47:0 48:0 49:0 50:0 51:0 52:0 53:0 54:0 55:0 56:0.00088059176 57:0 58:0 59:0.022014794 60:0.0056357872 61:0.0031701303 62:0 63:0.014089468 64:0 65:0.00088059176 66:0 67:0 68:0 69:0 70:0 71:0 72:0 73:0.0056357872 74:0 75:0.010743219 76:0.033462487 77:0.017787954 78:0.0044029588 79:0.0070447341 80:0 81:0 82:0.0010567101 83:0 84:0.0003522367 85:0 86:0.0026417753 87:0.0033462487 88:0 89:0.0003522367 90:0 91:0.0049313138 92:0.003522367 93:0 94:0 95:0.0061641423 96:0.0047551955 97:0.0066924974 98:0.055653399 99:0.0033462487 100:0 101:0 102:0 103:0 104:0 105:0 106:0 107:0 108:0 109:0 110:0 111:0 112:0 113:0 114:0.024832688 115:0.00017611835 116:0.014441705 117:0.01391335 118:0.0015850652 119:0 120:0.0015850652 121:0 122:0.0015850652 123:0 124:0 125:0 126:0.0191969 127:0.00052835505 128:0 129:0.096336738 130:0.10725608 131:0.047551955 132:0.021662557 133:0.021662557 134:0.00088059176 135:0.00017611835 136:0.0026417753 137:0 138:0.012328285 139:0.0058119056 140:0.041387813 141:0.011976048 142:0 143:0.0075730891 144:0.00070447341 145:0.011976048 146:0.0014089468 147:0 148:0.012328285 149:0.01391335 150:0 151:0.00070447341 152:0 153:0 154:0 155:0 156:0 157:0 
1 1 1:0.037698413 2:0.014384921 3:0.0034722222 4:0.0074404762 5:0 6:0.0024801587 7:0.0014880952 8:0.00099206349 9:0.012400794 10:0.0625 11:0.00049603175 12:0 13:0 14:0.072420635 15:0.0024801587 16:0 17:0 18:0 19:0 20:0 21:0 22:0 23:0 24:0 25:0 26:0 27:0.05109127 28:0.0074404762 29:0.017361111 30:0.0074404762 31:0 32:0.0069444444 33:0 34:0 35:0.00049603175 36:0 37:0 38:0 39:0 40:0 41:0 42:0 43:0 44:0 45:0 46:0 47:0 48:0 49:0 50:0 51:0 52:0 53:0 54:0 55:0 56:0.00049603175 57:0 58:0 59:0.02281746 60:0.0034722222 61:0.0014880952 62:0 63:0.0089285714 64:0 65:0.00049603175 66:0 67:0 68:0 69:0 70:0 71:0 72:0 73:0.012896825 74:0 75:0.012400794 76:0.0094246032 77:0.034722222 78:0.001984127 79:0.003968254 80:0 81:0 82:0 83:0 84:0 85:0 86:0.0029761905 87:0.00049603175 88:0 89:0 90:0 91:0.0049603175 92:0.00049603175 93:0 94:0 95:0.0089285714 96:0.0024801587 97:0.0064484127 98:0.048115079 99:0.0044642857 100:0 101:0 102:0 103:0 104:0 105:0 106:0 107:0 108:0 109:0 110:0 111:0 112:0 113:0 114:0.026785714 115:0 116:0.019345238 117:0.019345238 118:0.0094246032 119:0 120:0.0014880952 121:0 122:0.00099206349 123:0 124:0 125:0 126:0.020833333 127:0 128:0 129:0.078373016 130:0.085813492 131:0.080357143 132:0.015376984 133:0.019345238 134:0.00099206349 135:0 136:0.00049603175 137:0 138:0.012896825 139:0.0054563492 140:0.028769841 141:0.017361111 142:0 143:0.0054563492 144:0 145:0.015376984 146:0.003968254 147:0 148:0.013888889 149:0.015376984 150:0 151:0.00099206349 152:0 153:0 154:0 155:0 156:0 157:0 
1 0 1:0 2:0 3:0 4:0 5:0 6:0 7:0 8:0 9:0 10:0.035714286 11:0 12:0 13:0 14:0.125 15:0 16:0 17:0 18:0 19:0 20:0 21:0 22:0 23:0 24:0 25:0 26:0 27:0.035714286 28:0.053571429 29:0.071428571 30:0 31:0 32:0.017857143 33:0 34:0 35:0 36:0 37:0 38:0 39:0 40:0 41:0 42:0 43:0 44:0 45:0 46:0 47:0 48:0 49:0 50:0 51:0 52:0 53:0 54:0 55:0 56:0 57:0 58:0 59:0.035714286 60:0 61:0 62:0 63:0 64:0 65:0 66:0 67:0 68:0 69:0 70:0 71:0 72:0 73:0 74:0 75:0 76:0 77:0.125 78:0 79:0 80:0 81:0 82:0 83:0 84:0 85:0 86:0 87:0 88:0 89:0 90:0 91:0.035714286 92:0 93:0 94:0 95:0.017857143 96:0 97:0 98:0.053571429 99:0 100:0 101:0 102:0 103:0 104:0 105:0 106:0 107:0 108:0 109:0 110:0 111:0 112:0 113:0 114:0 115:0 116:0.035714286 117:0.017857143 118:0 119:0 120:0 121:0 122:0 123:0 124:0 125:0 126:0.017857143 127:0 128:0 129:0.053571429 130:0.053571429 131:0.16071429 132:0 133:0.017857143 134:0 135:0 136:0 137:0 138:0 139:0 140:0.017857143 141:0 142:0 143:0 144:0 145:0 146:0 147:0 148:0.017857143 149:0 150:0 151:0 152:0 153:0 154:0 155:0 156:0 157:0 
1 1 1:0.02133995 2:0.016129032 3:0.0042183623 4:0.0094292804 5:0 6:0.0027295285 7:0.0022332506 8:0.00024813896 9:0.011662531 10:0.078908189 11:0.0027295285 12:0.00099255583 13:0 14:0.079900744 15:0.017617866 16:0 17:0.00024813896 18:0 19:0.00024813896 20:0 21:0 22:0 23:0 24:0 25:0 26:0 27:0.034491315 28:0.010669975 29:0.021091811 30:0.005955335 31:0 32:0.0084367246 33:0 34:0 35:0.00024813896 36:0 37:0 38:0 39:0 40:0 41:0 42:0 43:0 44:0 45:0 46:0 47:0 48:0 49:0 50:0 51:0 52:0 53:0 54:0 55:0 56:0.00024813896 57:0 58:0 59:0.025310174 60:0.0037220844 61:0.0019851117 62:0 63:0.0094292804 64:0 65:0 66:0 67:0 68:0 69:0 70:0 71:0 72:0 73:0.005707196 74:0 75:0.0086848635 76:0.024069479 77:0.038957816 78:0.0019851117 79:0.0049627792 80:0 81:0 82:0.00024813896 83:0 84:0.0017369727 85:0 86:0.0017369727 87:0.00024813896 88:0 89:0.00074441687 90:0 91:0.0086848635 92:0.0024813896 93:0 94:0 95:0.0049627792 96:0.0032258065 97:0.0081885856 98:0.051612903 99:0.0054590571 100:0 101:0 102:0 103:0 104:0 105:0 106:0 107:0 108:0 109:0 110:0 111:0 112:0 113:0 114:0.036228288 115:0 116:0.017617866 117:0.024813896 118:0.0034739454 119:0 120:0.00099255583 121:0 122:0.0012406948 123:0 124:0 125:0 126:0.027791563 127:0.00049627792 128:0 129:0.058560794 130:0.063027295 131:0.081389578 132:0.014143921 133:0.017369727 134:0.0017369727 135:0 136:0.00049627792 137:0 138:0.010918114 139:0.0037220844 140:0.028039702 141:0.0099255583 142:0 143:0.0064516129 144:0.00049627792 145:0.0099255583 146:0.0012406948 147:0 148:0.014888337 149:0.020347395 150:0 151:0.00074441687 152:0 153:0 154:0 155:0 156:0 157:0 
1 0 1:0.017532209 2:0.014875814 3:0.0021251162 4:0.0026563953 5:0 6:0.0013281976 7:0.00079691858 8:0.00039845929 9:0.013149157 10:0.056846859 11:0.0079691858 12:0 13:0 14:0.099083544 15:0.013680436 16:0 17:0.00053127905 18:0 19:0 20:0 21:0 22:0 23:0 24:0 25:0 26:0 27:0.060167353 28:0.020852703 29:0.026165493 30:0.0053127905 31:0 32:0.0034533139 33:0.00026563953 34:0 35:0 36:0 37:0 38:0 39:0 40:0 41:0 42:0 43:0 44:0 45:0 46:0 47:0 48:0 49:0 50:0 51:0 52:0 53:0 54:0 55:0 56:0.00013281976 57:0.00026563953 58:0 59:0.013680436 60:0.0035861336 61:0.00013281976 62:0 63:0.01115686 64:0 65:0.00013281976 66:0 67:0 68:0 69:0 70:0 71:0 72:0 73:0.00039845929 74:0.00053127905 75:0.0075707265 76:0.025368575 77:0.038119272 78:0.0013281976 79:0.0066409882 80:0 81:0 82:0 83:0 84:0.00013281976 85:0 86:0.00092973835 87:0.00066409882 88:0 89:0.00013281976 90:0 91:0.014875814 92:0.0011953779 93:0.00013281976 94:0 95:0.0098286625 96:0.005047151 97:0.0025235755 98:0.051135609 99:0.0034533139 100:0 101:0 102:0 103:0 104:0 105:0 106:0 107:0 108:0 109:0 110:0 111:0 112:0 113:0 114:0.028423429 115:0.00013281976 116:0.025235755 117:0.010758401 118:0.002789215 119:0.00026563953 120:0.0066409882 121:0 122:0.00079691858 123:0 124:0 125:0 126:0.026298313 127:0 128:0 129:0.053127905 130:0.088192323 131:0.092973835 132:0.0061097091 133:0.018594767 134:0.0013281976 135:0.00039845929 136:0.0015938372 137:0 138:0.0114225 139:0.0049143313 140:0.021782441 141:0.0092973835 142:0 143:0.0049143313 144:0 145:0.011688139 146:0.0013281976 147:0 148:0.014875814 149:0.0091645637 150:0 151:0.00066409882 152:0 153:0 154:0 155:0 156:0 157:0 
1 0 1:0.02170767 2:0.014954173 3:0.004341534 4:0.0033767487 5:0 6:0.001447178 7:0.00024119633 8:0 9:0.0091654607 10:0.060299083 11:0.0033767487 12:0 13:0 14:0.086589484 15:0.017366136 16:0 17:0.000723589 18:0 19:0 20:0 21:0 22:0 23:0 24:0 25:0 26:0 27:0.065846599 28:0.013748191 29:0.020742885 30:0.012783406 31:0 32:0.002170767 33:0 34:0 35:0 36:0 37:0 38:0 39:0 40:0 41:0 42:0 43:0 44:0 45:0 46:0 47:0 48:0 49:0 50:0 51:0 52:0 53:0 54:0 55:0 56:0 57:0.00024119633 58:0 59:0.013989387 60:0.003617945 61:0.00048239267 62:0 63:0.009406657 64:0 65:0.00024119633 66:0 67:0 68:0 69:0 70:0 71:0 72:0 73:0.002170767 74:0 75:0.006512301 76:0.033767487 77:0.0262904 78:0.0033767487 79:0.0096478534 80:0 81:0.00024119633 82:0.00024119633 83:0 84:0 85:0 86:0.000723589 87:0.0012059817 88:0 89:0 90:0 91:0.0074770863 92:0.0033767487 93:0 94:0 95:0.0045827303 96:0.0067534973 97:0.0031355523 98:0.048239267 99:0.0024119633 100:0 101:0 102:0 103:0 104:0 105:0 106:0 107:0 108:0 109:0 110:0 111:0 112:0 113:0 114:0.027978775 115:0 116:0.030149542 117:0.010130246 118:0.002894356 119:0 120:0.0026531597 121:0 122:0.0012059817 123:0 124:0 125:0 126:0.022431259 127:0 128:0 129:0.075976845 130:0.12132176 131:0.074529667 132:0.011095031 133:0.0098890497 134:0.000723589 135:0 136:0.00096478534 137:0 138:0.013506995 139:0.0053063193 140:0.023396044 141:0.0060299083 142:0 143:0.0074770863 144:0 145:0.005788712 146:0.0012059817 147:0 148:0.007959479 149:0.010130246 150:0 151:0.00024119633 152:0 153:0 154:0 155:0 156:0 157:0 
1 0 1:0.024054983 2:0.013745704 3:0.0034364261 4:0.0068728522 5:0 6:0 7:0 8:0 9:0 10:0.041237113 11:0.013745704 12:0 13:0 14:0.096219931 15:0.0068728522 16:0 17:0 18:0 19:0 20:0 21:0 22:0 23:0 24:0 25:0 26:0 27:0.068728522 28:0.020618557 29:0.017182131 30:0 31:0 32:0 33:0 34:0 35:0 36:0 37:0 38:0 39:0 40:0 41:0 42:0 43:0 44:0 45:0 46:0 47:0 48:0 49:0 50:0 51:0 52:0 53:0 54:0 55:0 56:0 57:0 58:0 59:0.017182131 60:0.0068728522 61:0 62:0 63:0.013745704 64:0 65:0 66:0 67:0 68:0 69:0 70:0 71:0 72:0 73:0 74:0 75:0.013745704 76:0.017182131 77:0.037800687 78:0.0034364261 79:0.024054983 80:0 81:0 82:0 83:0 84:0 85:0 86:0 87:0 88:0 89:0 90:0 91:0.0034364261 92:0 93:0 94:0 95:0 96:0 97:0.010309278 98:0.075601375 99:0.017182131 100:0 101:0 102:0 103:0 104:0 105:0 106:0 107:0 108:0 109:0 110:0 111:0 112:0 113:0 114:0.024054983 115:0 116:0.010309278 117:0.0068728522 118:0 119:0 120:0 121:0 122:0.0034364261 123:0 124:0 125:0 126:0.030927835 127:0 128:0 129:0.058419244 130:0.12714777 131:0.075601375 132:0.0068728522 133:0.010309278 134:0 135:0 136:0 137:0 138:0.0068728522 139:0.0068728522 140:0.034364261 141:0 142:0 143:0.0068728522 144:0 145:0.0034364261 146:0 147:0 148:0.027491409 149:0.0068728522 150:0 151:0 152:0 153:0 154:0 155:0 156:0 157:0 
1 0 1:0.024824356 2:0.014519906 3:0.0056206089 4:0.0018735363 5:0 6:0.0028103044 7:0.0042154567 8:0.00093676815 9:0.011709602 10:0.055737705 11:0.00046838407 12:0 13:0 14:0.077283372 15:0.011709602 16:0 17:0.0018735363 18:0 19:0 20:0 21:0 22:0 23:0 24:0 25:0 26:0 27:0.045433255 28:0.016393443 29:0.018266979 30:0.0056206089 31:0 32:0.0028103044 33:0 34:0 35:0.0014051522 36:0 37:0 38:0 39:0 40:0 41:0 42:0 43:0 44:0 45:0 46:0 47:0 48:0 49:0 50:0 51:0 52:0 53:0 54:0 55:0 56:0 57:0.0014051522 58:0 59:0.022014052 60:0.0074941452 61:0.00046838407 62:0 63:0.0088992974 64:0 65:0 66:0 67:0 68:0 69:0 70:0 71:0 72:0 73:0.0014051522 74:0 75:0.0079625293 76:0.033723653 77:0.021077283 78:0.0046838407 79:0.0051522248 80:0 81:0 82:0 83:0 84:0 85:0 86:0.00046838407 87:0.0014051522 88:0 89:0 90:0 91:0.0032786885 92:0.0028103044 93:0 94:0 95:0.0023419204 96:0.0070257611 97:0.0070257611 98:0.045901639 99:0.00093676815 100:0 101:0 102:0 103:0 104:0 105:0 106:0 107:0 108:0 109:0 110:0 111:0 112:0 113:0 114:0.034660422 115:0.00046838407 116:0.023887588 117:0.013114754 118:0.0056206089 119:0 120:0.00093676815 121:0 122:0.00093676815 123:0 124:0 125:0 126:0.02529274 127:0 128:0 129:0.096955504 130:0.12974239 131:0.056206089 132:0.018735363 133:0.01498829 134:0.00046838407 135:0 136:0.00093676815 137:0 138:0.01030445 139:0.0088992974 140:0.021545667 141:0.0098360656 142:0 143:0.0070257611 144:0 145:0.0098360656 146:0.0014051522 147:0 148:0.0098360656 149:0.0088992974 150:0 151:0.00046838407 152:0 153:0 154:0 155:0 156:0 157:0 
1 0 1:0.015990862 2:0.023700742 3:0.0042832667 4:0.0029982867 5:0 6:0.00128498 7:0.00042832667 8:0.00057110223 9:0.010708167 10:0.053398058 11:0.00057110223 12:0 13:0 14:0.05396916 15:0.012421473 16:0 17:0.0015705311 18:0 19:0 20:0 21:0 22:0 23:0 24:0 25:0 26:0 27:0.039977156 28:0.0067104512 29:0.017418618 30:0.014277556 31:0 32:0.0052826956 33:0 34:0 35:0 36:0 37:0.00028555111 38:0 39:0 40:0 41:0 42:0 43:0 44:0 45:0 46:0 47:0 48:0 49:0 50:0 51:0 52:0 53:0 54:0 55:0 56:0.00042832667 57:0.00028555111 58:0 59:0.0385494 60:0.0057110223 61:0.00128498 62:0 63:0.0092804112 64:0 65:0.00014277556 66:0 67:0.00028555111 68:0 69:0 70:0 71:0 72:0 73:0.00085665334 74:0 75:0.0081382067 76:0.017133067 77:0.022844089 78:0.0037121645 79:0.0044260423 80:0 81:0 82:0 83:0 84:0.00028555111 85:0 86:0.00028555111 87:0.00014277556 88:0 89:0 90:0 91:0.0011422045 92:0.0022844089 93:0 94:0 95:0.0022844089 96:0.0052826956 97:0.0064249001 98:0.05396916 99:0.0017133067 100:0 101:0 102:0 103:0 104:0 105:0 106:0 107:0 108:0 109:0 110:0 111:0 112:0 113:0 114:0.014991433 115:0 116:0.015276985 117:0.0128498 118:0.0042832667 119:0 120:0.00256996 121:0 122:0.00028555111 123:0 124:0 125:0 126:0.016990291 127:0.00014277556 128:0 129:0.12806967 130:0.13292404 131:0.040262707 132:0.024557396 133:0.018418047 134:0.0027127356 135:0.00014277556 136:0 137:0 138:0.01156482 139:0.0057110223 140:0.038834951 141:0.0085665334 142:0 143:0.013420902 144:0 145:0.014277556 146:0.0017133067 147:0 148:0.02055968 149:0.01670474 150:0 151:0.0014277556 152:0 153:0 154:0 155:0 156:0 157:0 
